<?xml version="1.0"?>
<opencv_storage>
<cascade>
  <stageType>BOOST</stageType>
  <featureType>HAAR</featureType>
  <height>32</height>
  <width>32</width>
  <stageParams>
    <boostType>GAB</boostType>
    <minHitRate>9.9500000476837158e-01</minHitRate>
    <maxFalseAlarm>5.0000000000000000e-01</maxFalseAlarm>
    <weightTrimRate>9.4999998807907104e-01</weightTrimRate>
    <maxDepth>1</maxDepth>
    <maxWeakCount>100</maxWeakCount></stageParams>
  <featureParams>
    <maxCatCount>0</maxCatCount>
    <featSize>1</featSize>
    <mode>BASIC</mode></featureParams>
  <stageNum>16</stageNum>
  <stages>
    <!-- stage 0 -->
    <_>
      <maxWeakCount>5</maxWeakCount>
      <stageThreshold>-2.4184739589691162e+00</stageThreshold>
      <weakClassifiers>
        <_>
          <internalNodes>
            0 -1 95 -6.8274918012320995e-03</internalNodes>
          <leafValues>
            4.4761905074119568e-01 -9.6244663000106812e-01</leafValues></_>
        <_>
          <internalNodes>
            0 -1 89 -2.4179792962968349e-03</internalNodes>
          <leafValues>
            4.6628293395042419e-01 -8.7364047765731812e-01</leafValues></_>
        <_>
          <internalNodes>
            0 -1 61 7.1889837272465229e-04</internalNodes>
          <leafValues>
            -7.4534374475479126e-01 4.0356260538101196e-01</leafValues></_>
        <_>
          <internalNodes>
            0 -1 114 3.2790756085887551e-04</internalNodes>
          <leafValues>
            -5.5166172981262207e-01 5.8003085851669312e-01</leafValues></_>
        <_>
          <internalNodes>
            0 -1 27 3.0025634914636612e-03</internalNodes>
          <leafValues>
            -4.1707390546798706e-01 7.4211436510086060e-01</leafValues></_></weakClassifiers></_>
    <!-- stage 1 -->
    <_>
      <maxWeakCount>5</maxWeakCount>
      <stageThreshold>-2.6145236492156982e+00</stageThreshold>
      <weakClassifiers>
        <_>
          <internalNodes>
            0 -1 13 8.2457855343818665e-02</internalNodes>
          <leafValues>
            -9.5499294996261597e-01 9.0769231319427490e-01</leafValues></_>
        <_>
          <internalNodes>
            0 -1 83 -5.1206294447183609e-03</internalNodes>
          <leafValues>
            2.1252597868442535e-01 -8.8119953870773315e-01</leafValues></_>
        <_>
          <internalNodes>
            0 -1 100 6.7456613760441542e-04</internalNodes>
          <leafValues>
            -7.3267352581024170e-01 3.2204389572143555e-01</leafValues></_>
        <_>
          <internalNodes>
            0 -1 91 1.4684570487588644e-04</internalNodes>
          <leafValues>
            -6.1562395095825195e-01 4.3508988618850708e-01</leafValues></_>
        <_>
          <internalNodes>
            0 -1 58 2.0477310754358768e-03</internalNodes>
          <leafValues>
            -4.8074755072593689e-01 6.2920111417770386e-01</leafValues></_></weakClassifiers></_>
    <!-- stage 2 -->
    <_>
      <maxWeakCount>5</maxWeakCount>
      <stageThreshold>-2.3988187313079834e+00</stageThreshold>
      <weakClassifiers>
        <_>
          <internalNodes>
            0 -1 15 7.2465114295482635e-02</internalNodes>
          <leafValues>
            -9.5381581783294678e-01 7.3913043737411499e-01</leafValues></_>
        <_>
          <internalNodes>
            0 -1 78 9.1424155980348587e-03</internalNodes>
          <leafValues>
            -8.3306896686553955e-01 4.5448404550552368e-01</leafValues></_>
        <_>
          <internalNodes>
            0 -1 25 -1.5426415018737316e-02</internalNodes>
          <leafValues>
            4.6558392047882080e-01 -6.1736077070236206e-01</leafValues></_>
        <_>
          <internalNodes>
            0 -1 44 7.2561074048280716e-03</internalNodes>
          <leafValues>
            -5.3416877985000610e-01 4.2255726456642151e-01</leafValues></_>
        <_>
          <internalNodes>
            0 -1 2 -2.7152901515364647e-02</internalNodes>
          <leafValues>
            5.3959566354751587e-01 -4.0802440047264099e-01</leafValues></_></weakClassifiers></_>
    <!-- stage 3 -->
    <_>
      <maxWeakCount>7</maxWeakCount>
      <stageThreshold>-2.8590159416198730e+00</stageThreshold>
      <weakClassifiers>
        <_>
          <internalNodes>
            0 -1 13 8.2683295011520386e-02</internalNodes>
          <leafValues>
            -9.5480227470397949e-01 5.5000001192092896e-01</leafValues></_>
        <_>
          <internalNodes>
            0 -1 80 8.0326274037361145e-03</internalNodes>
          <leafValues>
            -8.2694751024246216e-01 3.0213481187820435e-01</leafValues></_>
        <_>
          <internalNodes>
            0 -1 43 -1.2636585161089897e-02</internalNodes>
          <leafValues>
            4.8408445715904236e-01 -5.6980311870574951e-01</leafValues></_>
        <_>
          <internalNodes>
            0 -1 111 7.0933550596237183e-02</internalNodes>
          <leafValues>
            -3.1558567285537720e-01 7.4189507961273193e-01</leafValues></_>
        <_>
          <internalNodes>
            0 -1 64 -1.0144012048840523e-03</internalNodes>
          <leafValues>
            4.4892531633377075e-01 -4.5347392559051514e-01</leafValues></_>
        <_>
          <internalNodes>
            0 -1 66 -9.7346329130232334e-04</internalNodes>
          <leafValues>
            5.2881228923797607e-01 -3.5962709784507751e-01</leafValues></_>
        <_>
          <internalNodes>
            0 -1 97 -4.3326326704118401e-05</internalNodes>
          <leafValues>
            4.0536352992057800e-01 -4.3625700473785400e-01</leafValues></_></weakClassifiers></_>
    <!-- stage 4 -->
    <_>
      <maxWeakCount>8</maxWeakCount>
      <stageThreshold>-2.2238535881042480e+00</stageThreshold>
      <weakClassifiers>
        <_>
          <internalNodes>
            0 -1 8 4.5616082847118378e-02</internalNodes>
          <leafValues>
            -9.4512879848480225e-01 8.3333331346511841e-01</leafValues></_>
        <_>
          <internalNodes>
            0 -1 93 2.2485531866550446e-02</internalNodes>
          <leafValues>
            -7.9012107849121094e-01 5.0325942039489746e-01</leafValues></_>
        <_>
          <internalNodes>
            0 -1 94 -1.4833167660981417e-03</internalNodes>
          <leafValues>
            3.5541081428527832e-01 -5.5597656965255737e-01</leafValues></_>
        <_>
          <internalNodes>
            0 -1 47 1.3659680262207985e-03</internalNodes>
          <leafValues>
            -3.2555577158927917e-01 6.6648644208908081e-01</leafValues></_>
        <_>
          <internalNodes>
            0 -1 116 -7.0542814210057259e-03</internalNodes>
          <leafValues>
            5.4943996667861938e-01 -4.0495705604553223e-01</leafValues></_>
        <_>
          <internalNodes>
            0 -1 0 -1.7992316186428070e-01</internalNodes>
          <leafValues>
            6.7788654565811157e-01 -2.7540114521980286e-01</leafValues></_>
        <_>
          <internalNodes>
            0 -1 96 -8.3640299271792173e-04</internalNodes>
          <leafValues>
            4.9738600850105286e-01 -3.5399144887924194e-01</leafValues></_>
        <_>
          <internalNodes>
            0 -1 106 4.1456078179180622e-03</internalNodes>
          <leafValues>
            -2.7041509747505188e-01 5.7590085268020630e-01</leafValues></_></weakClassifiers></_>
    <!-- stage 5 -->
    <_>
      <maxWeakCount>8</maxWeakCount>
      <stageThreshold>-2.1651840209960938e+00</stageThreshold>
      <weakClassifiers>
        <_>
          <internalNodes>
            0 -1 75 4.0614269673824310e-02</internalNodes>
          <leafValues>
            -9.4309860467910767e-01 1.7142857611179352e-01</leafValues></_>
        <_>
          <internalNodes>
            0 -1 52 1.0362539440393448e-02</internalNodes>
          <leafValues>
            -8.3165138959884644e-01 -1.0650324076414108e-01</leafValues></_>
        <_>
          <internalNodes>
            0 -1 71 -2.2902861237525940e-03</internalNodes>
          <leafValues>
            2.0858952403068542e-01 -6.2681853771209717e-01</leafValues></_>
        <_>
          <internalNodes>
            0 -1 108 -1.3375550042837858e-03</internalNodes>
          <leafValues>
            3.8165611028671265e-01 -3.6356136202812195e-01</leafValues></_>
        <_>
          <internalNodes>
            0 -1 65 5.7255187130067497e-05</internalNodes>
          <leafValues>
            2.1639116108417511e-01 -6.9761043787002563e-01</leafValues></_>
        <_>
          <internalNodes>
            0 -1 120 -5.2820181008428335e-04</internalNodes>
          <leafValues>
            -8.9698249101638794e-01 1.6778551042079926e-01</leafValues></_>
        <_>
          <internalNodes>
            0 -1 31 1.1306298896670341e-02</internalNodes>
          <leafValues>
            -2.1345420181751251e-01 7.2846430540084839e-01</leafValues></_>
        <_>
          <internalNodes>
            0 -1 104 -1.4888085424900055e-03</internalNodes>
          <leafValues>
            5.6663423776626587e-01 -2.3740042746067047e-01</leafValues></_></weakClassifiers></_>
    <!-- stage 6 -->
    <_>
      <maxWeakCount>9</maxWeakCount>
      <stageThreshold>-2.3705835342407227e+00</stageThreshold>
      <weakClassifiers>
        <_>
          <internalNodes>
            0 -1 21 1.9439045339822769e-02</internalNodes>
          <leafValues>
            -9.3725490570068359e-01 2.0000000298023224e-01</leafValues></_>
        <_>
          <internalNodes>
            0 -1 19 3.3802464604377747e-02</internalNodes>
          <leafValues>
            -7.3422443866729736e-01 1.9287885725498199e-01</leafValues></_>
        <_>
          <internalNodes>
            0 -1 56 3.3179065212607384e-04</internalNodes>
          <leafValues>
            -5.3509759902954102e-01 2.3536014556884766e-01</leafValues></_>
        <_>
          <internalNodes>
            0 -1 68 1.0534325987100601e-01</internalNodes>
          <leafValues>
            -2.6320978999137878e-01 5.6899428367614746e-01</leafValues></_>
        <_>
          <internalNodes>
            0 -1 92 -1.6291772481054068e-03</internalNodes>
          <leafValues>
            -8.3471268415451050e-01 1.6828738152980804e-01</leafValues></_>
        <_>
          <internalNodes>
            0 -1 79 -3.9390265010297298e-03</internalNodes>
          <leafValues>
            3.5240381956100464e-01 -4.3844580650329590e-01</leafValues></_>
        <_>
          <internalNodes>
            0 -1 110 5.8664823882281780e-04</internalNodes>
          <leafValues>
            1.2502112984657288e-01 -8.4737813472747803e-01</leafValues></_>
        <_>
          <internalNodes>
            0 -1 32 -2.2957848850637674e-03</internalNodes>
          <leafValues>
            -5.1539707183837891e-01 2.2007650136947632e-01</leafValues></_>
        <_>
          <internalNodes>
            0 -1 16 9.1765746474266052e-03</internalNodes>
          <leafValues>
            1.6506455838680267e-01 -7.6658570766448975e-01</leafValues></_></weakClassifiers></_>
    <!-- stage 7 -->
    <_>
      <maxWeakCount>7</maxWeakCount>
      <stageThreshold>-2.4288792610168457e+00</stageThreshold>
      <weakClassifiers>
        <_>
          <internalNodes>
            0 -1 42 6.2971428036689758e-02</internalNodes>
          <leafValues>
            -9.4510471820831299e-01 4.6511627733707428e-02</leafValues></_>
        <_>
          <internalNodes>
            0 -1 73 3.1042881309986115e-02</internalNodes>
          <leafValues>
            -7.7986532449722290e-01 3.6734536290168762e-02</leafValues></_>
        <_>
          <internalNodes>
            0 -1 103 5.2967254305258393e-04</internalNodes>
          <leafValues>
            -4.8259067535400391e-01 2.7280417084693909e-01</leafValues></_>
        <_>
          <internalNodes>
            0 -1 5 -3.8363866042345762e-04</internalNodes>
          <leafValues>
            -8.2983469963073730e-01 1.4475454390048981e-01</leafValues></_>
        <_>
          <internalNodes>
            0 -1 60 1.8668558914214373e-04</internalNodes>
          <leafValues>
            -4.9128556251525879e-01 2.6830223202705383e-01</leafValues></_>
        <_>
          <internalNodes>
            0 -1 11 1.2230940628796816e-03</internalNodes>
          <leafValues>
            1.5912282466888428e-01 -7.5395375490188599e-01</leafValues></_>
        <_>
          <internalNodes>
            0 -1 12 -3.2429241109639406e-03</internalNodes>
          <leafValues>
            -8.7412834167480469e-01 1.1957836896181107e-01</leafValues></_></weakClassifiers></_>
    <!-- stage 8 -->
    <_>
      <maxWeakCount>7</maxWeakCount>
      <stageThreshold>-2.1827425956726074e+00</stageThreshold>
      <weakClassifiers>
        <_>
          <internalNodes>
            0 -1 57 9.0271160006523132e-02</internalNodes>
          <leafValues>
            -9.4162225723266602e-01 3.3333334326744080e-01</leafValues></_>
        <_>
          <internalNodes>
            0 -1 101 1.4218697324395180e-02</internalNodes>
          <leafValues>
            -8.0120706558227539e-01 -3.3250078558921814e-02</leafValues></_>
        <_>
          <internalNodes>
            0 -1 72 2.8311632922850549e-04</internalNodes>
          <leafValues>
            -5.9177380800247192e-01 1.7317862808704376e-01</leafValues></_>
        <_>
          <internalNodes>
            0 -1 119 7.2807627730071545e-03</internalNodes>
          <leafValues>
            1.1247879266738892e-01 -9.4082158803939819e-01</leafValues></_>
        <_>
          <internalNodes>
            0 -1 46 1.9544530659914017e-02</internalNodes>
          <leafValues>
            1.5296939015388489e-01 -8.8955694437026978e-01</leafValues></_>
        <_>
          <internalNodes>
            0 -1 51 -9.8226759582757950e-03</internalNodes>
          <leafValues>
            4.9980998039245605e-01 -2.9886347055435181e-01</leafValues></_>
        <_>
          <internalNodes>
            0 -1 99 5.6848373787943274e-05</internalNodes>
          <leafValues>
            -5.7967674732208252e-01 2.7188888192176819e-01</leafValues></_></weakClassifiers></_>
    <!-- stage 9 -->
    <_>
      <maxWeakCount>7</maxWeakCount>
      <stageThreshold>-2.3024137020111084e+00</stageThreshold>
      <weakClassifiers>
        <_>
          <internalNodes>
            0 -1 41 3.4630607813596725e-02</internalNodes>
          <leafValues>
            -9.3941092491149902e-01 2.3636363446712494e-01</leafValues></_>
        <_>
          <internalNodes>
            0 -1 37 -3.8890587165951729e-03</internalNodes>
          <leafValues>
            -3.1641474366188049e-01 -8.8257378339767456e-01</leafValues></_>
        <_>
          <internalNodes>
            0 -1 18 -9.5010269433259964e-03</internalNodes>
          <leafValues>
            -7.8606677055358887e-01 2.3743076249957085e-02</leafValues></_>
        <_>
          <internalNodes>
            0 -1 113 1.8737545469775796e-03</internalNodes>
          <leafValues>
            -4.1390207409858704e-01 2.6742917299270630e-01</leafValues></_>
        <_>
          <internalNodes>
            0 -1 39 -1.8838901072740555e-02</internalNodes>
          <leafValues>
            -1. 1.3673670589923859e-01</leafValues></_>
        <_>
          <internalNodes>
            0 -1 10 -6.6291657276451588e-04</internalNodes>
          <leafValues>
            -9.5056003332138062e-01 8.7047792971134186e-02</leafValues></_>
        <_>
          <internalNodes>
            0 -1 87 9.4267744570970535e-03</internalNodes>
          <leafValues>
            5.8642961084842682e-02 -8.8021343946456909e-01</leafValues></_></weakClassifiers></_>
    <!-- stage 10 -->
    <_>
      <maxWeakCount>12</maxWeakCount>
      <stageThreshold>-2.5613472461700439e+00</stageThreshold>
      <weakClassifiers>
        <_>
          <internalNodes>
            0 -1 3 3.1905196607112885e-02</internalNodes>
          <leafValues>
            -9.4174206256866455e-01 -7.1428574621677399e-02</leafValues></_>
        <_>
          <internalNodes>
            0 -1 17 2.5181442499160767e-02</internalNodes>
          <leafValues>
            -7.3194146156311035e-01 2.2082421183586121e-01</leafValues></_>
        <_>
          <internalNodes>
            0 -1 59 -2.9287659563124180e-03</internalNodes>
          <leafValues>
            1.8030428886413574e-01 -5.5254334211349487e-01</leafValues></_>
        <_>
          <internalNodes>
            0 -1 36 1.6869582235813141e-02</internalNodes>
          <leafValues>
            1.0489419847726822e-01 -9.0488797426223755e-01</leafValues></_>
        <_>
          <internalNodes>
            0 -1 28 -7.3130792006850243e-03</internalNodes>
          <leafValues>
            4.3645095825195313e-01 -3.1459990143775940e-01</leafValues></_>
        <_>
          <internalNodes>
            0 -1 62 1.8607668578624725e-02</internalNodes>
          <leafValues>
            1.2191120535135269e-01 -8.1865715980529785e-01</leafValues></_>
        <_>
          <internalNodes>
            0 -1 33 3.0410644831135869e-04</internalNodes>
          <leafValues>
            1.9681321084499359e-01 -5.3039622306823730e-01</leafValues></_>
        <_>
          <internalNodes>
            0 -1 115 1.3811241369694471e-03</internalNodes>
          <leafValues>
            -2.8238263726234436e-01 4.6032971143722534e-01</leafValues></_>
        <_>
          <internalNodes>
            0 -1 63 -3.0320102814584970e-03</internalNodes>
          <leafValues>
            3.3746081590652466e-01 -4.3608301877975464e-01</leafValues></_>
        <_>
          <internalNodes>
            0 -1 98 -2.9683127067983150e-03</internalNodes>
          <leafValues>
            -5.6035208702087402e-01 1.9951245188713074e-01</leafValues></_>
        <_>
          <internalNodes>
            0 -1 48 8.3246669964864850e-04</internalNodes>
          <leafValues>
            -2.6219999790191650e-01 5.0095820426940918e-01</leafValues></_>
        <_>
          <internalNodes>
            0 -1 6 1.2058335414621979e-05</internalNodes>
          <leafValues>
            -3.4215193986892700e-01 3.3372032642364502e-01</leafValues></_></weakClassifiers></_>
    <!-- stage 11 -->
    <_>
      <maxWeakCount>9</maxWeakCount>
      <stageThreshold>-2.4402477741241455e+00</stageThreshold>
      <weakClassifiers>
        <_>
          <internalNodes>
            0 -1 35 -2.0287025719881058e-02</internalNodes>
          <leafValues>
            1.6129031777381897e-01 -9.4041597843170166e-01</leafValues></_>
        <_>
          <internalNodes>
            0 -1 40 1.0030122101306915e-01</internalNodes>
          <leafValues>
            -7.1089798212051392e-01 4.2863041162490845e-01</leafValues></_>
        <_>
          <internalNodes>
            0 -1 117 1.0808870196342468e-02</internalNodes>
          <leafValues>
            -3.8716381788253784e-01 4.4504454731941223e-01</leafValues></_>
        <_>
          <internalNodes>
            0 -1 53 5.8934446424245834e-03</internalNodes>
          <leafValues>
            1.6718111932277679e-01 -7.1627557277679443e-01</leafValues></_>
        <_>
          <internalNodes>
            0 -1 121 9.0872787404805422e-04</internalNodes>
          <leafValues>
            9.1139048337936401e-02 -1.</leafValues></_>
        <_>
          <internalNodes>
            0 -1 54 -3.8962130201980472e-04</internalNodes>
          <leafValues>
            2.7666166424751282e-01 -3.9041784405708313e-01</leafValues></_>
        <_>
          <internalNodes>
            0 -1 85 -1.8836648669093847e-03</internalNodes>
          <leafValues>
            -4.8892566561698914e-01 2.4242982268333435e-01</leafValues></_>
        <_>
          <internalNodes>
            0 -1 84 1.1870424263179302e-02</internalNodes>
          <leafValues>
            1.9890819489955902e-01 -5.7996612787246704e-01</leafValues></_>
        <_>
          <internalNodes>
            0 -1 122 -2.2719777189195156e-03</internalNodes>
          <leafValues>
            -7.9718661308288574e-01 1.3214002549648285e-01</leafValues></_></weakClassifiers></_>
    <!-- stage 12 -->
    <_>
      <maxWeakCount>8</maxWeakCount>
      <stageThreshold>-2.4868113994598389e+00</stageThreshold>
      <weakClassifiers>
        <_>
          <internalNodes>
            0 -1 50 -5.3042534738779068e-02</internalNodes>
          <leafValues>
            2.7868852019309998e-01 -9.4211858510971069e-01</leafValues></_>
        <_>
          <internalNodes>
            0 -1 9 4.0127657353878021e-02</internalNodes>
          <leafValues>
            -7.9958951473236084e-01 -9.0892791748046875e-02</leafValues></_>
        <_>
          <internalNodes>
            0 -1 107 4.1270651854574680e-04</internalNodes>
          <leafValues>
            -5.9884923696517944e-01 1.7064143717288971e-01</leafValues></_>
        <_>
          <internalNodes>
            0 -1 23 3.4411479718983173e-03</internalNodes>
          <leafValues>
            -4.9243128299713135e-01 2.3295432329177856e-01</leafValues></_>
        <_>
          <internalNodes>
            0 -1 118 -2.2085238015279174e-04</internalNodes>
          <leafValues>
            3.9043536782264709e-01 -3.3815822005271912e-01</leafValues></_>
        <_>
          <internalNodes>
            0 -1 74 -4.1447831317782402e-03</internalNodes>
          <leafValues>
            -8.9157515764236450e-01 1.9652691483497620e-01</leafValues></_>
        <_>
          <internalNodes>
            0 -1 24 9.8885677289217710e-04</internalNodes>
          <leafValues>
            -3.9131614565849304e-01 3.0935207009315491e-01</leafValues></_>
        <_>
          <internalNodes>
            0 -1 105 -1.9328856142237782e-03</internalNodes>
          <leafValues>
            -7.4531543254852295e-01 1.7845655977725983e-01</leafValues></_></weakClassifiers></_>
    <!-- stage 13 -->
    <_>
      <maxWeakCount>9</maxWeakCount>
      <stageThreshold>-2.5249955654144287e+00</stageThreshold>
      <weakClassifiers>
        <_>
          <internalNodes>
            0 -1 1 2.5123901665210724e-02</internalNodes>
          <leafValues>
            -9.4120973348617554e-01 -7.3170728981494904e-02</leafValues></_>
        <_>
          <internalNodes>
            0 -1 109 1.4561533462256193e-03</internalNodes>
          <leafValues>
            -8.0832463502883911e-01 -2.3084859549999237e-01</leafValues></_>
        <_>
          <internalNodes>
            0 -1 81 -1.0724593885242939e-03</internalNodes>
          <leafValues>
            1.2871913611888885e-01 -6.2236917018890381e-01</leafValues></_>
        <_>
          <internalNodes>
            0 -1 45 -8.1570371985435486e-03</internalNodes>
          <leafValues>
            -8.2299846410751343e-01 1.4395131170749664e-01</leafValues></_>
        <_>
          <internalNodes>
            0 -1 55 -6.3507063314318657e-03</internalNodes>
          <leafValues>
            -6.5949547290802002e-01 1.7589434981346130e-01</leafValues></_>
        <_>
          <internalNodes>
            0 -1 82 2.3535176296718419e-05</internalNodes>
          <leafValues>
            -4.5903405547142029e-01 2.2284759581089020e-01</leafValues></_>
        <_>
          <internalNodes>
            0 -1 38 1.3798313215374947e-02</internalNodes>
          <leafValues>
            -2.3894257843494415e-01 4.2470851540565491e-01</leafValues></_>
        <_>
          <internalNodes>
            0 -1 69 -2.6676895096898079e-02</internalNodes>
          <leafValues>
            -8.5703009366989136e-01 1.5201842784881592e-01</leafValues></_>
        <_>
          <internalNodes>
            0 -1 7 1.3343503233045340e-03</internalNodes>
          <leafValues>
            1.1780031025409698e-01 -6.7806786298751831e-01</leafValues></_></weakClassifiers></_>
    <!-- stage 14 -->
    <_>
      <maxWeakCount>9</maxWeakCount>
      <stageThreshold>-2.3319299221038818e+00</stageThreshold>
      <weakClassifiers>
        <_>
          <internalNodes>
            0 -1 30 -2.4891514331102371e-02</internalNodes>
          <leafValues>
            -1.3513512909412384e-01 -9.3795824050903320e-01</leafValues></_>
        <_>
          <internalNodes>
            0 -1 29 4.9366004765033722e-02</internalNodes>
          <leafValues>
            -7.2743850946426392e-01 5.4075151681900024e-02</leafValues></_>
        <_>
          <internalNodes>
            0 -1 67 1.2862736184615642e-04</internalNodes>
          <leafValues>
            -5.7751232385635376e-01 1.0195691883563995e-01</leafValues></_>
        <_>
          <internalNodes>
            0 -1 102 2.2515607997775078e-04</internalNodes>
          <leafValues>
            1.1636175960302353e-01 -7.4850934743881226e-01</leafValues></_>
        <_>
          <internalNodes>
            0 -1 20 1.0477565228939056e-03</internalNodes>
          <leafValues>
            1.1245598644018173e-01 -8.7405246496200562e-01</leafValues></_>
        <_>
          <internalNodes>
            0 -1 70 2.6219747960567474e-02</internalNodes>
          <leafValues>
            1.1691401153802872e-01 -7.9126667976379395e-01</leafValues></_>
        <_>
          <internalNodes>
            0 -1 86 -1.3508372940123081e-02</internalNodes>
          <leafValues>
            3.3387148380279541e-01 -3.1274560093879700e-01</leafValues></_>
        <_>
          <internalNodes>
            0 -1 112 -1.2549278326332569e-03</internalNodes>
          <leafValues>
            3.1244194507598877e-01 -3.1483578681945801e-01</leafValues></_>
        <_>
          <internalNodes>
            0 -1 4 1.9608791917562485e-03</internalNodes>
          <leafValues>
            -4.3444892764091492e-01 2.0849646627902985e-01</leafValues></_></weakClassifiers></_>
    <!-- stage 15 -->
    <_>
      <maxWeakCount>9</maxWeakCount>
      <stageThreshold>-2.2316820621490479e+00</stageThreshold>
      <weakClassifiers>
        <_>
          <internalNodes>
            0 -1 34 2.2037629038095474e-02</internalNodes>
          <leafValues>
            -9.4621455669403076e-01 -4.9748742580413818e-01</leafValues></_>
        <_>
          <internalNodes>
            0 -1 90 -1.0626906901597977e-01</internalNodes>
          <leafValues>
            -2.1489816717803478e-03 -7.3222583532333374e-01</leafValues></_>
        <_>
          <internalNodes>
            0 -1 88 -1.2695387704297900e-04</internalNodes>
          <leafValues>
            1.3172617554664612e-01 -5.5884897708892822e-01</leafValues></_>
        <_>
          <internalNodes>
            0 -1 14 6.2124887481331825e-03</internalNodes>
          <leafValues>
            1.0932346433401108e-01 -8.3277344703674316e-01</leafValues></_>
        <_>
          <internalNodes>
            0 -1 26 -4.5965053141117096e-02</internalNodes>
          <leafValues>
            -9.5108199119567871e-01 1.2696117162704468e-01</leafValues></_>
        <_>
          <internalNodes>
            0 -1 22 1.0182759433519095e-04</internalNodes>
          <leafValues>
            -5.0915712118148804e-01 1.6146999597549438e-01</leafValues></_>
        <_>
          <internalNodes>
            0 -1 77 -1.4245742000639439e-02</internalNodes>
          <leafValues>
            3.7774944305419922e-01 -2.7189123630523682e-01</leafValues></_>
        <_>
          <internalNodes>
            0 -1 76 2.5321159046143293e-04</internalNodes>
          <leafValues>
            -2.5753098726272583e-01 4.2661988735198975e-01</leafValues></_>
        <_>
          <internalNodes>
            0 -1 49 6.2002299819141626e-04</internalNodes>
          <leafValues>
            1.3727489113807678e-01 -8.7491506338119507e-01</leafValues></_></weakClassifiers></_></stages>
  <features>
    <_>
      <rects>
        <_>
          0 2 30 18 -1.</_>
        <_>
          10 2 10 18 3.</_></rects>
      <tilted>0</tilted></_>
    <_>
      <rects>
        <_>
          0 9 22 1 -1.</_>
        <_>
          11 9 11 1 2.</_></rects>
      <tilted>0</tilted></_>
    <_>
      <rects>
        <_>
          0 10 10 19 -1.</_>
        <_>
          5 10 5 19 2.</_></rects>
      <tilted>0</tilted></_>
    <_>
      <rects>
        <_>
          0 13 16 2 -1.</_>
        <_>
          8 13 8 2 2.</_></rects>
      <tilted>0</tilted></_>
    <_>
      <rects>
        <_>
          0 15 32 8 -1.</_>
        <_>
          16 15 16 8 2.</_></rects>
      <tilted>0</tilted></_>
    <_>
      <rects>
        <_>
          0 26 2 6 -1.</_>
        <_>
          1 26 1 6 2.</_></rects>
      <tilted>0</tilted></_>
    <_>
      <rects>
        <_>
          0 28 2 4 -1.</_>
        <_>
          0 28 1 2 2.</_>
        <_>
          1 30 1 2 2.</_></rects>
      <tilted>0</tilted></_>
    <_>
      <rects>
        <_>
          0 31 12 1 -1.</_>
        <_>
          4 31 4 1 3.</_></rects>
      <tilted>0</tilted></_>
    <_>
      <rects>
        <_>
          1 10 30 1 -1.</_>
        <_>
          11 10 10 1 3.</_></rects>
      <tilted>0</tilted></_>
    <_>
      <rects>
        <_>
          2 2 14 12 -1.</_>
        <_>
          2 2 7 6 2.</_>
        <_>
          9 8 7 6 2.</_></rects>
      <tilted>0</tilted></_>
    <_>
      <rects>
        <_>
          2 9 4 3 -1.</_>
        <_>
          2 10 4 1 3.</_></rects>
      <tilted>0</tilted></_>
    <_>
      <rects>
        <_>
          2 13 5 4 -1.</_>
        <_>
          2 15 5 2 2.</_></rects>
      <tilted>0</tilted></_>
    <_>
      <rects>
        <_>
          2 14 7 6 -1.</_>
        <_>
          2 16 7 2 3.</_></rects>
      <tilted>0</tilted></_>
    <_>
      <rects>
        <_>
          2 22 30 2 -1.</_>
        <_>
          12 22 10 2 3.</_></rects>
      <tilted>0</tilted></_>
    <_>
      <rects>
        <_>
          4 20 26 1 -1.</_>
        <_>
          17 20 13 1 2.</_></rects>
      <tilted>0</tilted></_>
    <_>
      <rects>
        <_>
          4 22 27 2 -1.</_>
        <_>
          13 22 9 2 3.</_></rects>
      <tilted>0</tilted></_>
    <_>
      <rects>
        <_>
          5 0 27 3 -1.</_>
        <_>
          14 0 9 3 3.</_></rects>
      <tilted>0</tilted></_>
    <_>
      <rects>
        <_>
          5 6 6 12 -1.</_>
        <_>
          5 6 3 6 2.</_>
        <_>
          8 12 3 6 2.</_></rects>
      <tilted>0</tilted></_>
    <_>
      <rects>
        <_>
          5 6 22 20 -1.</_>
        <_>
          5 6 11 10 2.</_>
        <_>
          16 16 11 10 2.</_></rects>
      <tilted>0</tilted></_>
    <_>
      <rects>
        <_>
          5 22 27 1 -1.</_>
        <_>
          14 22 9 1 3.</_></rects>
      <tilted>0</tilted></_>
    <_>
      <rects>
        <_>
          6 10 4 3 -1.</_>
        <_>
          6 11 4 1 3.</_></rects>
      <tilted>0</tilted></_>
    <_>
      <rects>
        <_>
          6 11 6 3 -1.</_>
        <_>
          9 11 3 3 2.</_></rects>
      <tilted>0</tilted></_>
    <_>
      <rects>
        <_>
          6 16 20 1 -1.</_>
        <_>
          16 16 10 1 2.</_></rects>
      <tilted>0</tilted></_>
    <_>
      <rects>
        <_>
          6 18 12 6 -1.</_>
        <_>
          6 18 6 3 2.</_>
        <_>
          12 21 6 3 2.</_></rects>
      <tilted>0</tilted></_>
    <_>
      <rects>
        <_>
          6 21 9 1 -1.</_>
        <_>
          9 21 3 1 3.</_></rects>
      <tilted>0</tilted></_>
    <_>
      <rects>
        <_>
          6 22 12 8 -1.</_>
        <_>
          6 22 6 4 2.</_>
        <_>
          12 26 6 4 2.</_></rects>
      <tilted>0</tilted></_>
    <_>
      <rects>
        <_>
          7 5 12 16 -1.</_>
        <_>
          7 5 6 8 2.</_>
        <_>
          13 13 6 8 2.</_></rects>
      <tilted>0</tilted></_>
    <_>
      <rects>
        <_>
          7 11 17 3 -1.</_>
        <_>
          7 12 17 1 3.</_></rects>
      <tilted>0</tilted></_>
    <_>
      <rects>
        <_>
          7 14 14 8 -1.</_>
        <_>
          7 18 14 4 2.</_></rects>
      <tilted>0</tilted></_>
    <_>
      <rects>
        <_>
          7 22 24 2 -1.</_>
        <_>
          15 22 8 2 3.</_></rects>
      <tilted>0</tilted></_>
    <_>
      <rects>
        <_>
          8 9 4 12 -1.</_>
        <_>
          8 9 2 6 2.</_>
        <_>
          10 15 2 6 2.</_></rects>
      <tilted>0</tilted></_>
    <_>
      <rects>
        <_>
          8 10 6 3 -1.</_>
        <_>
          10 10 2 3 3.</_></rects>
      <tilted>0</tilted></_>
    <_>
      <rects>
        <_>
          8 14 14 6 -1.</_>
        <_>
          15 14 7 6 2.</_></rects>
      <tilted>0</tilted></_>
    <_>
      <rects>
        <_>
          8 24 6 7 -1.</_>
        <_>
          10 24 2 7 3.</_></rects>
      <tilted>0</tilted></_>
    <_>
      <rects>
        <_>
          9 6 3 10 -1.</_>
        <_>
          9 11 3 5 2.</_></rects>
      <tilted>0</tilted></_>
    <_>
      <rects>
        <_>
          9 9 4 8 -1.</_>
        <_>
          9 9 2 4 2.</_>
        <_>
          11 13 2 4 2.</_></rects>
      <tilted>0</tilted></_>
    <_>
      <rects>
        <_>
          9 11 15 9 -1.</_>
        <_>
          9 14 15 3 3.</_></rects>
      <tilted>0</tilted></_>
    <_>
      <rects>
        <_>
          9 12 14 6 -1.</_>
        <_>
          9 15 14 3 2.</_></rects>
      <tilted>0</tilted></_>
    <_>
      <rects>
        <_>
          9 25 13 6 -1.</_>
        <_>
          9 27 13 2 3.</_></rects>
      <tilted>0</tilted></_>
    <_>
      <rects>
        <_>
          10 1 8 20 -1.</_>
        <_>
          10 1 4 10 2.</_>
        <_>
          14 11 4 10 2.</_></rects>
      <tilted>0</tilted></_>
    <_>
      <rects>
        <_>
          10 4 7 18 -1.</_>
        <_>
          10 10 7 6 3.</_></rects>
      <tilted>0</tilted></_>
    <_>
      <rects>
        <_>
          10 5 2 15 -1.</_>
        <_>
          10 10 2 5 3.</_></rects>
      <tilted>0</tilted></_>
    <_>
      <rects>
        <_>
          10 20 12 6 -1.</_>
        <_>
          10 22 12 2 3.</_></rects>
      <tilted>0</tilted></_>
    <_>
      <rects>
        <_>
          10 22 14 4 -1.</_>
        <_>
          10 24 14 2 2.</_></rects>
      <tilted>0</tilted></_>
    <_>
      <rects>
        <_>
          11 2 6 14 -1.</_>
        <_>
          11 2 3 7 2.</_>
        <_>
          14 9 3 7 2.</_></rects>
      <tilted>0</tilted></_>
    <_>
      <rects>
        <_>
          11 3 10 16 -1.</_>
        <_>
          11 3 5 8 2.</_>
        <_>
          16 11 5 8 2.</_></rects>
      <tilted>0</tilted></_>
    <_>
      <rects>
        <_>
          11 6 8 18 -1.</_>
        <_>
          11 6 4 9 2.</_>
        <_>
          15 15 4 9 2.</_></rects>
      <tilted>0</tilted></_>
    <_>
      <rects>
        <_>
          11 10 2 4 -1.</_>
        <_>
          11 10 1 2 2.</_>
        <_>
          12 12 1 2 2.</_></rects>
      <tilted>0</tilted></_>
    <_>
      <rects>
        <_>
          11 11 2 2 -1.</_>
        <_>
          11 11 1 1 2.</_>
        <_>
          12 12 1 1 2.</_></rects>
      <tilted>0</tilted></_>
    <_>
      <rects>
        <_>
          12 0 6 2 -1.</_>
        <_>
          12 1 6 1 2.</_></rects>
      <tilted>0</tilted></_>
    <_>
      <rects>
        <_>
          12 9 20 2 -1.</_>
        <_>
          22 9 10 2 2.</_></rects>
      <tilted>0</tilted></_>
    <_>
      <rects>
        <_>
          12 9 10 4 -1.</_>
        <_>
          12 11 10 2 2.</_></rects>
      <tilted>0</tilted></_>
    <_>
      <rects>
        <_>
          12 10 6 6 -1.</_>
        <_>
          14 10 2 6 3.</_></rects>
      <tilted>0</tilted></_>
    <_>
      <rects>
        <_>
          12 12 8 4 -1.</_>
        <_>
          16 12 4 4 2.</_></rects>
      <tilted>0</tilted></_>
    <_>
      <rects>
        <_>
          12 13 2 4 -1.</_>
        <_>
          12 15 2 2 2.</_></rects>
      <tilted>0</tilted></_>
    <_>
      <rects>
        <_>
          12 16 8 6 -1.</_>
        <_>
          12 16 4 3 2.</_>
        <_>
          16 19 4 3 2.</_></rects>
      <tilted>0</tilted></_>
    <_>
      <rects>
        <_>
          12 17 2 3 -1.</_>
        <_>
          12 18 2 1 3.</_></rects>
      <tilted>0</tilted></_>
    <_>
      <rects>
        <_>
          12 19 9 9 -1.</_>
        <_>
          12 22 9 3 3.</_></rects>
      <tilted>0</tilted></_>
    <_>
      <rects>
        <_>
          12 23 20 2 -1.</_>
        <_>
          12 23 10 1 2.</_>
        <_>
          22 24 10 1 2.</_></rects>
      <tilted>0</tilted></_>
    <_>
      <rects>
        <_>
          13 7 8 8 -1.</_>
        <_>
          13 7 4 4 2.</_>
        <_>
          17 11 4 4 2.</_></rects>
      <tilted>0</tilted></_>
    <_>
      <rects>
        <_>
          13 9 2 3 -1.</_>
        <_>
          14 9 1 3 2.</_></rects>
      <tilted>0</tilted></_>
    <_>
      <rects>
        <_>
          13 10 2 5 -1.</_>
        <_>
          14 10 1 5 2.</_></rects>
      <tilted>0</tilted></_>
    <_>
      <rects>
        <_>
          13 12 16 12 -1.</_>
        <_>
          13 12 8 6 2.</_>
        <_>
          21 18 8 6 2.</_></rects>
      <tilted>0</tilted></_>
    <_>
      <rects>
        <_>
          13 13 8 6 -1.</_>
        <_>
          13 16 8 3 2.</_></rects>
      <tilted>0</tilted></_>
    <_>
      <rects>
        <_>
          13 15 3 9 -1.</_>
        <_>
          14 15 1 9 3.</_></rects>
      <tilted>0</tilted></_>
    <_>
      <rects>
        <_>
          14 0 4 2 -1.</_>
        <_>
          14 0 2 1 2.</_>
        <_>
          16 1 2 1 2.</_></rects>
      <tilted>0</tilted></_>
    <_>
      <rects>
        <_>
          14 5 4 3 -1.</_>
        <_>
          14 6 4 1 3.</_></rects>
      <tilted>0</tilted></_>
    <_>
      <rects>
        <_>
          14 9 2 8 -1.</_>
        <_>
          14 9 1 4 2.</_>
        <_>
          15 13 1 4 2.</_></rects>
      <tilted>0</tilted></_>
    <_>
      <rects>
        <_>
          14 9 18 19 -1.</_>
        <_>
          23 9 9 19 2.</_></rects>
      <tilted>0</tilted></_>
    <_>
      <rects>
        <_>
          14 9 15 9 -1.</_>
        <_>
          14 12 15 3 3.</_></rects>
      <tilted>0</tilted></_>
    <_>
      <rects>
        <_>
          14 11 2 21 -1.</_>
        <_>
          14 18 2 7 3.</_></rects>
      <tilted>0</tilted></_>
    <_>
      <rects>
        <_>
          14 13 2 6 -1.</_>
        <_>
          14 16 2 3 2.</_></rects>
      <tilted>0</tilted></_>
    <_>
      <rects>
        <_>
          14 16 2 1 -1.</_>
        <_>
          15 16 1 1 2.</_></rects>
      <tilted>0</tilted></_>
    <_>
      <rects>
        <_>
          14 22 16 6 -1.</_>
        <_>
          14 22 8 3 2.</_>
        <_>
          22 25 8 3 2.</_></rects>
      <tilted>0</tilted></_>
    <_>
      <rects>
        <_>
          15 0 6 5 -1.</_>
        <_>
          17 0 2 5 3.</_></rects>
      <tilted>0</tilted></_>
    <_>
      <rects>
        <_>
          15 0 2 16 -1.</_>
        <_>
          15 8 2 8 2.</_></rects>
      <tilted>0</tilted></_>
    <_>
      <rects>
        <_>
          15 0 3 4 -1.</_>
        <_>
          15 2 3 2 2.</_></rects>
      <tilted>0</tilted></_>
    <_>
      <rects>
        <_>
          15 5 16 10 -1.</_>
        <_>
          15 10 16 5 2.</_></rects>
      <tilted>0</tilted></_>
    <_>
      <rects>
        <_>
          15 14 3 7 -1.</_>
        <_>
          16 14 1 7 3.</_></rects>
      <tilted>0</tilted></_>
    <_>
      <rects>
        <_>
          15 14 4 11 -1.</_>
        <_>
          17 14 2 11 2.</_></rects>
      <tilted>0</tilted></_>
    <_>
      <rects>
        <_>
          15 15 3 6 -1.</_>
        <_>
          16 15 1 6 3.</_></rects>
      <tilted>0</tilted></_>
    <_>
      <rects>
        <_>
          15 16 11 4 -1.</_>
        <_>
          15 18 11 2 2.</_></rects>
      <tilted>0</tilted></_>
    <_>
      <rects>
        <_>
          15 22 3 7 -1.</_>
        <_>
          16 22 1 7 3.</_></rects>
      <tilted>0</tilted></_>
    <_>
      <rects>
        <_>
          16 1 2 20 -1.</_>
        <_>
          16 1 1 10 2.</_>
        <_>
          17 11 1 10 2.</_></rects>
      <tilted>0</tilted></_>
    <_>
      <rects>
        <_>
          16 2 4 30 -1.</_>
        <_>
          16 17 4 15 2.</_></rects>
      <tilted>0</tilted></_>
    <_>
      <rects>
        <_>
          16 3 1 26 -1.</_>
        <_>
          16 16 1 13 2.</_></rects>
      <tilted>0</tilted></_>
    <_>
      <rects>
        <_>
          16 4 10 8 -1.</_>
        <_>
          16 4 5 4 2.</_>
        <_>
          21 8 5 4 2.</_></rects>
      <tilted>0</tilted></_>
    <_>
      <rects>
        <_>
          16 6 4 20 -1.</_>
        <_>
          16 6 2 10 2.</_>
        <_>
          18 16 2 10 2.</_></rects>
      <tilted>0</tilted></_>
    <_>
      <rects>
        <_>
          16 11 1 4 -1.</_>
        <_>
          16 13 1 2 2.</_></rects>
      <tilted>0</tilted></_>
    <_>
      <rects>
        <_>
          16 15 3 2 -1.</_>
        <_>
          17 15 1 2 3.</_></rects>
      <tilted>0</tilted></_>
    <_>
      <rects>
        <_>
          16 18 14 14 -1.</_>
        <_>
          16 25 14 7 2.</_></rects>
      <tilted>0</tilted></_>
    <_>
      <rects>
        <_>
          16 21 3 3 -1.</_>
        <_>
          17 21 1 3 3.</_></rects>
      <tilted>0</tilted></_>
    <_>
      <rects>
        <_>
          16 21 2 8 -1.</_>
        <_>
          17 21 1 8 2.</_></rects>
      <tilted>0</tilted></_>
    <_>
      <rects>
        <_>
          17 14 6 5 -1.</_>
        <_>
          19 14 2 5 3.</_></rects>
      <tilted>0</tilted></_>
    <_>
      <rects>
        <_>
          17 16 2 6 -1.</_>
        <_>
          17 16 1 3 2.</_>
        <_>
          18 19 1 3 2.</_></rects>
      <tilted>0</tilted></_>
    <_>
      <rects>
        <_>
          17 18 4 4 -1.</_>
        <_>
          17 18 2 2 2.</_>
        <_>
          19 20 2 2 2.</_></rects>
      <tilted>0</tilted></_>
    <_>
      <rects>
        <_>
          17 19 4 2 -1.</_>
        <_>
          17 19 2 1 2.</_>
        <_>
          19 20 2 1 2.</_></rects>
      <tilted>0</tilted></_>
    <_>
      <rects>
        <_>
          17 29 1 3 -1.</_>
        <_>
          17 30 1 1 3.</_></rects>
      <tilted>0</tilted></_>
    <_>
      <rects>
        <_>
          18 3 1 24 -1.</_>
        <_>
          18 15 1 12 2.</_></rects>
      <tilted>0</tilted></_>
    <_>
      <rects>
        <_>
          18 14 2 6 -1.</_>
        <_>
          18 16 2 2 3.</_></rects>
      <tilted>0</tilted></_>
    <_>
      <rects>
        <_>
          18 15 2 6 -1.</_>
        <_>
          18 17 2 2 3.</_></rects>
      <tilted>0</tilted></_>
    <_>
      <rects>
        <_>
          18 21 10 6 -1.</_>
        <_>
          18 21 5 3 2.</_>
        <_>
          23 24 5 3 2.</_></rects>
      <tilted>0</tilted></_>
    <_>
      <rects>
        <_>
          19 1 3 3 -1.</_>
        <_>
          20 1 1 3 3.</_></rects>
      <tilted>0</tilted></_>
    <_>
      <rects>
        <_>
          19 9 1 3 -1.</_>
        <_>
          19 10 1 1 3.</_></rects>
      <tilted>0</tilted></_>
    <_>
      <rects>
        <_>
          19 10 3 2 -1.</_>
        <_>
          19 11 3 1 2.</_></rects>
      <tilted>0</tilted></_>
    <_>
      <rects>
        <_>
          19 15 5 4 -1.</_>
        <_>
          19 17 5 2 2.</_></rects>
      <tilted>0</tilted></_>
    <_>
      <rects>
        <_>
          20 8 3 12 -1.</_>
        <_>
          21 8 1 12 3.</_></rects>
      <tilted>0</tilted></_>
    <_>
      <rects>
        <_>
          20 9 1 8 -1.</_>
        <_>
          20 13 1 4 2.</_></rects>
      <tilted>0</tilted></_>
    <_>
      <rects>
        <_>
          20 11 2 5 -1.</_>
        <_>
          21 11 1 5 2.</_></rects>
      <tilted>0</tilted></_>
    <_>
      <rects>
        <_>
          20 21 3 3 -1.</_>
        <_>
          20 22 3 1 3.</_></rects>
      <tilted>0</tilted></_>
    <_>
      <rects>
        <_>
          21 0 6 1 -1.</_>
        <_>
          24 0 3 1 2.</_></rects>
      <tilted>0</tilted></_>
    <_>
      <rects>
        <_>
          21 5 10 17 -1.</_>
        <_>
          26 5 5 17 2.</_></rects>
      <tilted>0</tilted></_>
    <_>
      <rects>
        <_>
          22 0 10 6 -1.</_>
        <_>
          22 3 10 3 2.</_></rects>
      <tilted>0</tilted></_>
    <_>
      <rects>
        <_>
          22 7 2 14 -1.</_>
        <_>
          22 7 1 7 2.</_>
        <_>
          23 14 1 7 2.</_></rects>
      <tilted>0</tilted></_>
    <_>
      <rects>
        <_>
          22 14 2 2 -1.</_>
        <_>
          23 14 1 2 2.</_></rects>
      <tilted>0</tilted></_>
    <_>
      <rects>
        <_>
          23 8 4 4 -1.</_>
        <_>
          23 8 2 2 2.</_>
        <_>
          25 10 2 2 2.</_></rects>
      <tilted>0</tilted></_>
    <_>
      <rects>
        <_>
          23 9 4 14 -1.</_>
        <_>
          25 9 2 14 2.</_></rects>
      <tilted>0</tilted></_>
    <_>
      <rects>
        <_>
          23 16 6 8 -1.</_>
        <_>
          23 16 3 4 2.</_>
        <_>
          26 20 3 4 2.</_></rects>
      <tilted>0</tilted></_>
    <_>
      <rects>
        <_>
          24 2 2 4 -1.</_>
        <_>
          24 4 2 2 2.</_></rects>
      <tilted>0</tilted></_>
    <_>
      <rects>
        <_>
          24 2 4 28 -1.</_>
        <_>
          24 2 2 14 2.</_>
        <_>
          26 16 2 14 2.</_></rects>
      <tilted>0</tilted></_>
    <_>
      <rects>
        <_>
          24 31 4 1 -1.</_>
        <_>
          26 31 2 1 2.</_></rects>
      <tilted>0</tilted></_>
    <_>
      <rects>
        <_>
          25 12 4 3 -1.</_>
        <_>
          25 13 4 1 3.</_></rects>
      <tilted>0</tilted></_>
    <_>
      <rects>
        <_>
          29 4 3 9 -1.</_>
        <_>
          29 7 3 3 3.</_></rects>
      <tilted>0</tilted></_></features></cascade>
</opencv_storage>
