<?xml version="1.0"?>
<opencv_storage>
<cascade>
  <stageType>BOOST</stageType>
  <featureType>HAAR</featureType>
  <height>24</height>
  <width>24</width>
  <stageParams>
    <boostType>GAB</boostType>
    <minHitRate>9.9500000476837158e-01</minHitRate>
    <maxFalseAlarm>5.0000000000000000e-01</maxFalseAlarm>
    <weightTrimRate>9.4999998807907104e-01</weightTrimRate>
    <maxDepth>1</maxDepth>
    <maxWeakCount>100</maxWeakCount></stageParams>
  <featureParams>
    <maxCatCount>0</maxCatCount>
    <featSize>1</featSize>
    <mode>BASIC</mode></featureParams>
  <stageNum>18</stageNum>
  <stages>
    <!-- stage 0 -->
    <_>
      <maxWeakCount>5</maxWeakCount>
      <stageThreshold>-2.3868529796600342e+00</stageThreshold>
      <weakClassifiers>
        <_>
          <internalNodes>
            0 -1 54 3.3905416727066040e-02</internalNodes>
          <leafValues>
            -9.6166324615478516e-01 8.7654322385787964e-01</leafValues></_>
        <_>
          <internalNodes>
            0 -1 112 1.6448657959699631e-02</internalNodes>
          <leafValues>
            -8.5395771265029907e-01 6.4382815361022949e-01</leafValues></_>
        <_>
          <internalNodes>
            0 -1 122 -1.4777658507227898e-03</internalNodes>
          <leafValues>
            6.2483489513397217e-01 -6.7464572191238403e-01</leafValues></_>
        <_>
          <internalNodes>
            0 -1 21 -1.5666920808143914e-04</internalNodes>
          <leafValues>
            5.4602086544036865e-01 -6.7592209577560425e-01</leafValues></_>
        <_>
          <internalNodes>
            0 -1 131 -5.2926624193787575e-03</internalNodes>
          <leafValues>
            8.3684492111206055e-01 -4.4260716438293457e-01</leafValues></_></weakClassifiers></_>
    <!-- stage 1 -->
    <_>
      <maxWeakCount>5</maxWeakCount>
      <stageThreshold>-2.4846351146697998e+00</stageThreshold>
      <weakClassifiers>
        <_>
          <internalNodes>
            0 -1 72 -3.3000499010086060e-02</internalNodes>
          <leafValues>
            4.1463413834571838e-01 -9.6775156259536743e-01</leafValues></_>
        <_>
          <internalNodes>
            0 -1 103 -1.5622807666659355e-02</internalNodes>
          <leafValues>
            4.7720876336097717e-01 -8.6012464761734009e-01</leafValues></_>
        <_>
          <internalNodes>
            0 -1 33 -1.3175984844565392e-02</internalNodes>
          <leafValues>
            5.0403070449829102e-01 -6.6512429714202881e-01</leafValues></_>
        <_>
          <internalNodes>
            0 -1 93 -4.5883087441325188e-03</internalNodes>
          <leafValues>
            6.4365833997726440e-01 -5.5958563089370728e-01</leafValues></_>
        <_>
          <internalNodes>
            0 -1 90 8.6597539484500885e-03</internalNodes>
          <leafValues>
            -5.2338504791259766e-01 5.6795102357864380e-01</leafValues></_></weakClassifiers></_>
    <!-- stage 2 -->
    <_>
      <maxWeakCount>4</maxWeakCount>
      <stageThreshold>-2.1044044494628906e+00</stageThreshold>
      <weakClassifiers>
        <_>
          <internalNodes>
            0 -1 82 6.2848314642906189e-02</internalNodes>
          <leafValues>
            -9.5686852931976318e-01 5.6321841478347778e-01</leafValues></_>
        <_>
          <internalNodes>
            0 -1 114 1.0764623060822487e-02</internalNodes>
          <leafValues>
            -8.0198109149932861e-01 7.0519673824310303e-01</leafValues></_>
        <_>
          <internalNodes>
            0 -1 134 -7.4153285822831094e-05</internalNodes>
          <leafValues>
            2.7554744482040405e-01 -6.8701338768005371e-01</leafValues></_>
        <_>
          <internalNodes>
            0 -1 19 3.3299185452051461e-04</internalNodes>
          <leafValues>
            -6.2110233306884766e-01 4.3647217750549316e-01</leafValues></_></weakClassifiers></_>
    <!-- stage 3 -->
    <_>
      <maxWeakCount>7</maxWeakCount>
      <stageThreshold>-2.5953457355499268e+00</stageThreshold>
      <weakClassifiers>
        <_>
          <internalNodes>
            0 -1 77 -1.3952560722827911e-02</internalNodes>
          <leafValues>
            6.9230771064758301e-01 -9.5580434799194336e-01</leafValues></_>
        <_>
          <internalNodes>
            0 -1 105 -2.0570516586303711e-02</internalNodes>
          <leafValues>
            7.0500409603118896e-01 -8.1900018453598022e-01</leafValues></_>
        <_>
          <internalNodes>
            0 -1 14 -2.4141473695635796e-02</internalNodes>
          <leafValues>
            7.0519763231277466e-01 -5.2178829908370972e-01</leafValues></_>
        <_>
          <internalNodes>
            0 -1 111 5.9352647513151169e-03</internalNodes>
          <leafValues>
            -3.8806501030921936e-01 5.5973935127258301e-01</leafValues></_>
        <_>
          <internalNodes>
            0 -1 119 1.1812020093202591e-03</internalNodes>
          <leafValues>
            -3.4173527359962463e-01 5.8072936534881592e-01</leafValues></_>
        <_>
          <internalNodes>
            0 -1 6 -1.5356772928498685e-04</internalNodes>
          <leafValues>
            -8.1532341241836548e-01 2.4325297772884369e-01</leafValues></_>
        <_>
          <internalNodes>
            0 -1 10 2.3403456434607506e-02</internalNodes>
          <leafValues>
            2.5460255146026611e-01 -7.3467016220092773e-01</leafValues></_></weakClassifiers></_>
    <!-- stage 4 -->
    <_>
      <maxWeakCount>7</maxWeakCount>
      <stageThreshold>-2.5516290664672852e+00</stageThreshold>
      <weakClassifiers>
        <_>
          <internalNodes>
            0 -1 61 -2.0540853962302208e-02</internalNodes>
          <leafValues>
            7.7777779102325439e-01 -9.4558221101760864e-01</leafValues></_>
        <_>
          <internalNodes>
            0 -1 50 -4.4065900146961212e-02</internalNodes>
          <leafValues>
            4.7491490840911865e-01 -8.3573937416076660e-01</leafValues></_>
        <_>
          <internalNodes>
            0 -1 70 -4.9031879752874374e-02</internalNodes>
          <leafValues>
            5.1723200082778931e-01 -5.7416486740112305e-01</leafValues></_>
        <_>
          <internalNodes>
            0 -1 32 1.2246960541233420e-03</internalNodes>
          <leafValues>
            -6.6117376089096069e-01 2.4836535751819611e-01</leafValues></_>
        <_>
          <internalNodes>
            0 -1 84 2.5102414656430483e-03</internalNodes>
          <leafValues>
            -3.9410251379013062e-01 4.7741648554801941e-01</leafValues></_>
        <_>
          <internalNodes>
            0 -1 128 -1.4346264302730560e-02</internalNodes>
          <leafValues>
            6.2044137716293335e-01 -2.9329481720924377e-01</leafValues></_>
        <_>
          <internalNodes>
            0 -1 37 6.6295983269810677e-03</internalNodes>
          <leafValues>
            2.8090950846672058e-01 -8.8222140073776245e-01</leafValues></_></weakClassifiers></_>
    <!-- stage 5 -->
    <_>
      <maxWeakCount>9</maxWeakCount>
      <stageThreshold>-2.4456908702850342e+00</stageThreshold>
      <weakClassifiers>
        <_>
          <internalNodes>
            0 -1 78 1.4785826206207275e-02</internalNodes>
          <leafValues>
            -9.4834166765213013e-01 6.3076925277709961e-01</leafValues></_>
        <_>
          <internalNodes>
            0 -1 104 -2.5756197050213814e-02</internalNodes>
          <leafValues>
            5.2057421207427979e-01 -7.9430925846099854e-01</leafValues></_>
        <_>
          <internalNodes>
            0 -1 23 -2.1337244659662247e-02</internalNodes>
          <leafValues>
            5.1598048210144043e-01 -4.8366960883140564e-01</leafValues></_>
        <_>
          <internalNodes>
            0 -1 132 3.2328185625374317e-03</internalNodes>
          <leafValues>
            -2.7208605408668518e-01 6.0122561454772949e-01</leafValues></_>
        <_>
          <internalNodes>
            0 -1 7 3.4485366195440292e-03</internalNodes>
          <leafValues>
            1.9508351385593414e-01 -8.5459542274475098e-01</leafValues></_>
        <_>
          <internalNodes>
            0 -1 101 -2.2826727945357561e-03</internalNodes>
          <leafValues>
            3.9316469430923462e-01 -3.8873937726020813e-01</leafValues></_>
        <_>
          <internalNodes>
            0 -1 144 4.5067106839269400e-04</internalNodes>
          <leafValues>
            1.7188809812068939e-01 -8.8366430997848511e-01</leafValues></_>
        <_>
          <internalNodes>
            0 -1 137 1.6937530599534512e-03</internalNodes>
          <leafValues>
            -3.1231683492660522e-01 5.1564055681228638e-01</leafValues></_>
        <_>
          <internalNodes>
            0 -1 22 3.3233547583222389e-05</internalNodes>
          <leafValues>
            -3.7992978096008301e-01 3.8680031895637512e-01</leafValues></_></weakClassifiers></_>
    <!-- stage 6 -->
    <_>
      <maxWeakCount>7</maxWeakCount>
      <stageThreshold>-2.7757329940795898e+00</stageThreshold>
      <weakClassifiers>
        <_>
          <internalNodes>
            0 -1 78 1.7102494835853577e-02</internalNodes>
          <leafValues>
            -9.4428151845932007e-01 4.8387095332145691e-01</leafValues></_>
        <_>
          <internalNodes>
            0 -1 46 2.1373394876718521e-02</internalNodes>
          <leafValues>
            -8.2829082012176514e-01 1.2481807172298431e-01</leafValues></_>
        <_>
          <internalNodes>
            0 -1 26 -4.5594712719321251e-03</internalNodes>
          <leafValues>
            3.2023271918296814e-01 -5.6968688964843750e-01</leafValues></_>
        <_>
          <internalNodes>
            0 -1 117 -2.3490487365052104e-04</internalNodes>
          <leafValues>
            3.2712399959564209e-01 -4.5602566003799438e-01</leafValues></_>
        <_>
          <internalNodes>
            0 -1 52 1.3515312457457185e-04</internalNodes>
          <leafValues>
            -5.3629636764526367e-01 3.1445574760437012e-01</leafValues></_>
        <_>
          <internalNodes>
            0 -1 83 5.3319213911890984e-03</internalNodes>
          <leafValues>
            1.9188059866428375e-01 -8.7144768238067627e-01</leafValues></_>
        <_>
          <internalNodes>
            0 -1 89 5.5502983741462231e-04</internalNodes>
          <leafValues>
            -4.8378446698188782e-01 3.0519840121269226e-01</leafValues></_></weakClassifiers></_>
    <!-- stage 7 -->
    <_>
      <maxWeakCount>8</maxWeakCount>
      <stageThreshold>-2.4786374568939209e+00</stageThreshold>
      <weakClassifiers>
        <_>
          <internalNodes>
            0 -1 76 1.5021450817584991e-02</internalNodes>
          <leafValues>
            -9.4312518835067749e-01 4.4262295961380005e-01</leafValues></_>
        <_>
          <internalNodes>
            0 -1 45 1.3010257855057716e-02</internalNodes>
          <leafValues>
            -7.8182131052017212e-01 4.7820276021957397e-01</leafValues></_>
        <_>
          <internalNodes>
            0 -1 69 2.4163588881492615e-02</internalNodes>
          <leafValues>
            -4.6317356824874878e-01 5.7258069515228271e-01</leafValues></_>
        <_>
          <internalNodes>
            0 -1 92 -6.5009556710720062e-03</internalNodes>
          <leafValues>
            5.5731177330017090e-01 -2.9704982042312622e-01</leafValues></_>
        <_>
          <internalNodes>
            0 -1 42 -6.4451261423528194e-03</internalNodes>
          <leafValues>
            6.6290408372879028e-01 -2.0117373764514923e-01</leafValues></_>
        <_>
          <internalNodes>
            0 -1 94 -1.6266411403194070e-03</internalNodes>
          <leafValues>
            5.2856349945068359e-01 -2.8366076946258545e-01</leafValues></_>
        <_>
          <internalNodes>
            0 -1 53 -4.1160627006320283e-05</internalNodes>
          <leafValues>
            3.3272349834442139e-01 -4.6757832169532776e-01</leafValues></_>
        <_>
          <internalNodes>
            0 -1 141 2.7527860365808010e-03</internalNodes>
          <leafValues>
            1.5864351391792297e-01 -7.4343323707580566e-01</leafValues></_></weakClassifiers></_>
    <!-- stage 8 -->
    <_>
      <maxWeakCount>9</maxWeakCount>
      <stageThreshold>-2.5232055187225342e+00</stageThreshold>
      <weakClassifiers>
        <_>
          <internalNodes>
            0 -1 79 1.6354849562048912e-02</internalNodes>
          <leafValues>
            -9.4021099805831909e-01 3.0000001192092896e-01</leafValues></_>
        <_>
          <internalNodes>
            0 -1 73 3.4128509461879730e-02</internalNodes>
          <leafValues>
            -8.0062878131866455e-01 1.4158979058265686e-01</leafValues></_>
        <_>
          <internalNodes>
            0 -1 80 -5.2302815020084381e-03</internalNodes>
          <leafValues>
            5.5548375844955444e-01 -4.2623531818389893e-01</leafValues></_>
        <_>
          <internalNodes>
            0 -1 62 -4.2246580123901367e-03</internalNodes>
          <leafValues>
            -7.4575233459472656e-01 1.9755439460277557e-01</leafValues></_>
        <_>
          <internalNodes>
            0 -1 71 8.3222184330224991e-03</internalNodes>
          <leafValues>
            -4.1085684299468994e-01 3.1873127818107605e-01</leafValues></_>
        <_>
          <internalNodes>
            0 -1 8 -2.3284589406102896e-03</internalNodes>
          <leafValues>
            -8.6848360300064087e-01 1.7855192720890045e-01</leafValues></_>
        <_>
          <internalNodes>
            0 -1 126 1.0731930378824472e-03</internalNodes>
          <leafValues>
            -2.5981447100639343e-01 5.7827132940292358e-01</leafValues></_>
        <_>
          <internalNodes>
            0 -1 100 2.4571552057750523e-04</internalNodes>
          <leafValues>
            2.7409285306930542e-01 -5.0603407621383667e-01</leafValues></_>
        <_>
          <internalNodes>
            0 -1 0 2.2530268132686615e-01</internalNodes>
          <leafValues>
            -2.8520905971527100e-01 4.4446861743927002e-01</leafValues></_></weakClassifiers></_>
    <!-- stage 9 -->
    <_>
      <maxWeakCount>8</maxWeakCount>
      <stageThreshold>-2.1660122871398926e+00</stageThreshold>
      <weakClassifiers>
        <_>
          <internalNodes>
            0 -1 96 7.8814271837472916e-03</internalNodes>
          <leafValues>
            -9.4426327943801880e-01 -5.0505049526691437e-02</leafValues></_>
        <_>
          <internalNodes>
            0 -1 20 -3.0148591846227646e-02</internalNodes>
          <leafValues>
            3.2186877727508545e-01 -7.6992875337600708e-01</leafValues></_>
        <_>
          <internalNodes>
            0 -1 97 -3.0276210978627205e-02</internalNodes>
          <leafValues>
            7.0531010627746582e-01 -3.6957719922065735e-01</leafValues></_>
        <_>
          <internalNodes>
            0 -1 49 4.7202926361933351e-04</internalNodes>
          <leafValues>
            2.3485700786113739e-01 -5.6365084648132324e-01</leafValues></_>
        <_>
          <internalNodes>
            0 -1 116 -1.1479957029223442e-03</internalNodes>
          <leafValues>
            3.0902391672134399e-01 -4.5640730857849121e-01</leafValues></_>
        <_>
          <internalNodes>
            0 -1 75 3.4458607435226440e-02</internalNodes>
          <leafValues>
            -3.0620574951171875e-01 4.8906067013740540e-01</leafValues></_>
        <_>
          <internalNodes>
            0 -1 56 7.5874762842431664e-05</internalNodes>
          <leafValues>
            -4.0567752718925476e-01 3.2953342795372009e-01</leafValues></_>
        <_>
          <internalNodes>
            0 -1 143 -2.0589081104844809e-03</internalNodes>
          <leafValues>
            -9.2197471857070923e-01 1.4905619621276855e-01</leafValues></_></weakClassifiers></_>
    <!-- stage 10 -->
    <_>
      <maxWeakCount>8</maxWeakCount>
      <stageThreshold>-2.4181487560272217e+00</stageThreshold>
      <weakClassifiers>
        <_>
          <internalNodes>
            0 -1 130 -8.6304629221558571e-03</internalNodes>
          <leafValues>
            3.7974681705236435e-02 -9.4105511903762817e-01</leafValues></_>
        <_>
          <internalNodes>
            0 -1 2 3.4328684210777283e-02</internalNodes>
          <leafValues>
            -7.7375370264053345e-01 2.6982453465461731e-01</leafValues></_>
        <_>
          <internalNodes>
            0 -1 102 -4.2228111997246742e-03</internalNodes>
          <leafValues>
            6.5119761228561401e-01 -4.2590141296386719e-01</leafValues></_>
        <_>
          <internalNodes>
            0 -1 81 -4.6282028779387474e-04</internalNodes>
          <leafValues>
            5.1451289653778076e-01 -2.7959734201431274e-01</leafValues></_>
        <_>
          <internalNodes>
            0 -1 9 1.0206652805209160e-03</internalNodes>
          <leafValues>
            -2.9910603165626526e-01 4.3673700094223022e-01</leafValues></_>
        <_>
          <internalNodes>
            0 -1 127 1.7585335299372673e-03</internalNodes>
          <leafValues>
            -3.0910572409629822e-01 4.3961605429649353e-01</leafValues></_>
        <_>
          <internalNodes>
            0 -1 35 2.7922415174543858e-03</internalNodes>
          <leafValues>
            -2.8431475162506104e-01 4.4783815741539001e-01</leafValues></_>
        <_>
          <internalNodes>
            0 -1 140 1.0002965573221445e-03</internalNodes>
          <leafValues>
            1.6253228485584259e-01 -8.3283311128616333e-01</leafValues></_></weakClassifiers></_>
    <!-- stage 11 -->
    <_>
      <maxWeakCount>9</maxWeakCount>
      <stageThreshold>-2.7389314174652100e+00</stageThreshold>
      <weakClassifiers>
        <_>
          <internalNodes>
            0 -1 91 1.6627088189125061e-02</internalNodes>
          <leafValues>
            -9.4176471233367920e-01 1.6666667163372040e-01</leafValues></_>
        <_>
          <internalNodes>
            0 -1 115 -1.2008449062705040e-02</internalNodes>
          <leafValues>
            4.3379300832748413e-01 -7.6385694742202759e-01</leafValues></_>
        <_>
          <internalNodes>
            0 -1 38 -2.1343469619750977e-02</internalNodes>
          <leafValues>
            3.9917626976966858e-01 -4.7146379947662354e-01</leafValues></_>
        <_>
          <internalNodes>
            0 -1 66 5.5764419957995415e-03</internalNodes>
          <leafValues>
            -3.3463370800018311e-01 4.0289217233657837e-01</leafValues></_>
        <_>
          <internalNodes>
            0 -1 142 5.2562272176146507e-03</internalNodes>
          <leafValues>
            1.7636935412883759e-01 -7.9874044656753540e-01</leafValues></_>
        <_>
          <internalNodes>
            0 -1 129 3.4760450944304466e-04</internalNodes>
          <leafValues>
            -3.0880004167556763e-01 4.0090316534042358e-01</leafValues></_>
        <_>
          <internalNodes>
            0 -1 120 3.0233288998715580e-04</internalNodes>
          <leafValues>
            -3.5508596897125244e-01 3.5136532783508301e-01</leafValues></_>
        <_>
          <internalNodes>
            0 -1 135 1.9306701142340899e-03</internalNodes>
          <leafValues>
            -2.2328691184520721e-01 6.3781350851058960e-01</leafValues></_>
        <_>
          <internalNodes>
            0 -1 31 -1.2044188380241394e-01</internalNodes>
          <leafValues>
            6.2229663133621216e-01 -2.2611194849014282e-01</leafValues></_></weakClassifiers></_>
    <!-- stage 12 -->
    <_>
      <maxWeakCount>10</maxWeakCount>
      <stageThreshold>-2.3412561416625977e+00</stageThreshold>
      <weakClassifiers>
        <_>
          <internalNodes>
            0 -1 78 2.6090975850820541e-02</internalNodes>
          <leafValues>
            -9.2929583787918091e-01 8.0952382087707520e-01</leafValues></_>
        <_>
          <internalNodes>
            0 -1 95 -8.0765327438712120e-03</internalNodes>
          <leafValues>
            1.7292322218418121e-01 -7.4793779850006104e-01</leafValues></_>
        <_>
          <internalNodes>
            0 -1 74 -1.1779012158513069e-02</internalNodes>
          <leafValues>
            2.1477867662906647e-01 -5.8226060867309570e-01</leafValues></_>
        <_>
          <internalNodes>
            0 -1 17 -2.5589016149751842e-04</internalNodes>
          <leafValues>
            1.5148653090000153e-01 -6.6832369565963745e-01</leafValues></_>
        <_>
          <internalNodes>
            0 -1 48 -2.2387932986021042e-02</internalNodes>
          <leafValues>
            -7.9433614015579224e-01 1.5872912108898163e-01</leafValues></_>
        <_>
          <internalNodes>
            0 -1 98 -1.3836311700288206e-04</internalNodes>
          <leafValues>
            2.0340803265571594e-01 -5.3206586837768555e-01</leafValues></_>
        <_>
          <internalNodes>
            0 -1 120 2.7851856430061162e-05</internalNodes>
          <leafValues>
            -4.3111252784729004e-01 2.5865593552589417e-01</leafValues></_>
        <_>
          <internalNodes>
            0 -1 59 1.5243997797369957e-02</internalNodes>
          <leafValues>
            1.3614562153816223e-01 -7.9135072231292725e-01</leafValues></_>
        <_>
          <internalNodes>
            0 -1 30 1.9990570843219757e-02</internalNodes>
          <leafValues>
            -1.7854894697666168e-01 6.8110203742980957e-01</leafValues></_>
        <_>
          <internalNodes>
            0 -1 109 1.5051674563437700e-03</internalNodes>
          <leafValues>
            1.4930503070354462e-01 -8.1163823604583740e-01</leafValues></_></weakClassifiers></_>
    <!-- stage 13 -->
    <_>
      <maxWeakCount>9</maxWeakCount>
      <stageThreshold>-2.3782341480255127e+00</stageThreshold>
      <weakClassifiers>
        <_>
          <internalNodes>
            0 -1 65 1.7775461077690125e-02</internalNodes>
          <leafValues>
            -9.3149489164352417e-01 7.0370370149612427e-01</leafValues></_>
        <_>
          <internalNodes>
            0 -1 113 7.8700166195631027e-03</internalNodes>
          <leafValues>
            -7.6549655199050903e-01 1.9480624794960022e-01</leafValues></_>
        <_>
          <internalNodes>
            0 -1 24 -4.7568143345415592e-03</internalNodes>
          <leafValues>
            2.0040664076805115e-01 -5.3534537553787231e-01</leafValues></_>
        <_>
          <internalNodes>
            0 -1 67 -9.5150656998157501e-03</internalNodes>
          <leafValues>
            3.0257484316825867e-01 -4.2273533344268799e-01</leafValues></_>
        <_>
          <internalNodes>
            0 -1 27 -8.5552583914250135e-04</internalNodes>
          <leafValues>
            -4.7785416245460510e-01 2.2913874685764313e-01</leafValues></_>
        <_>
          <internalNodes>
            0 -1 51 -3.2963942736387253e-02</internalNodes>
          <leafValues>
            -8.2208365201950073e-01 1.3445791602134705e-01</leafValues></_>
        <_>
          <internalNodes>
            0 -1 5 4.8549892380833626e-03</internalNodes>
          <leafValues>
            -2.4479068815708160e-01 4.3465238809585571e-01</leafValues></_>
        <_>
          <internalNodes>
            0 -1 1 4.0476545691490173e-03</internalNodes>
          <leafValues>
            1.3466817140579224e-01 -8.2126772403717041e-01</leafValues></_>
        <_>
          <internalNodes>
            0 -1 3 -2.3558402899652719e-03</internalNodes>
          <leafValues>
            -7.3070532083511353e-01 1.1105649173259735e-01</leafValues></_></weakClassifiers></_>
    <!-- stage 14 -->
    <_>
      <maxWeakCount>10</maxWeakCount>
      <stageThreshold>-2.2855720520019531e+00</stageThreshold>
      <weakClassifiers>
        <_>
          <internalNodes>
            0 -1 139 -1.4630410820245743e-02</internalNodes>
          <leafValues>
            4.4776119291782379e-02 -9.3773859739303589e-01</leafValues></_>
        <_>
          <internalNodes>
            0 -1 107 1.1304534971714020e-02</internalNodes>
          <leafValues>
            -7.1128904819488525e-01 5.1860386133193970e-01</leafValues></_>
        <_>
          <internalNodes>
            0 -1 43 6.5131066367030144e-03</internalNodes>
          <leafValues>
            -5.0492107868194580e-01 2.9035007953643799e-01</leafValues></_>
        <_>
          <internalNodes>
            0 -1 18 -1.4833637513220310e-02</internalNodes>
          <leafValues>
            3.3399420976638794e-01 -3.9850389957427979e-01</leafValues></_>
        <_>
          <internalNodes>
            0 -1 108 6.6871657036244869e-03</internalNodes>
          <leafValues>
            -2.9999098181724548e-01 4.5881265401840210e-01</leafValues></_>
        <_>
          <internalNodes>
            0 -1 125 6.0784828383475542e-04</internalNodes>
          <leafValues>
            -2.8813704848289490e-01 3.6501425504684448e-01</leafValues></_>
        <_>
          <internalNodes>
            0 -1 138 1.8024307209998369e-03</internalNodes>
          <leafValues>
            1.5641479194164276e-01 -9.6778839826583862e-01</leafValues></_>
        <_>
          <internalNodes>
            0 -1 55 9.2777583631686866e-05</internalNodes>
          <leafValues>
            -4.1751053929328918e-01 2.1884267032146454e-01</leafValues></_>
        <_>
          <internalNodes>
            0 -1 4 -9.5331204647663981e-05</internalNodes>
          <leafValues>
            -3.7955549359321594e-01 2.8986561298370361e-01</leafValues></_>
        <_>
          <internalNodes>
            0 -1 99 -1.8743820255622268e-03</internalNodes>
          <leafValues>
            -9.3073433637619019e-01 1.2680861353874207e-01</leafValues></_></weakClassifiers></_>
    <!-- stage 15 -->
    <_>
      <maxWeakCount>10</maxWeakCount>
      <stageThreshold>-2.3801484107971191e+00</stageThreshold>
      <weakClassifiers>
        <_>
          <internalNodes>
            0 -1 133 1.4144441112875938e-02</internalNodes>
          <leafValues>
            -9.4226193428039551e-01 -2.1428571641445160e-01</leafValues></_>
        <_>
          <internalNodes>
            0 -1 136 -1.8757147714495659e-02</internalNodes>
          <leafValues>
            -4.2444128543138504e-02 -7.8650361299514771e-01</leafValues></_>
        <_>
          <internalNodes>
            0 -1 124 -1.7916806973516941e-03</internalNodes>
          <leafValues>
            2.8513160347938538e-01 -4.9529358744621277e-01</leafValues></_>
        <_>
          <internalNodes>
            0 -1 121 1.4349214732646942e-02</internalNodes>
          <leafValues>
            -2.1238128840923309e-01 6.6962265968322754e-01</leafValues></_>
        <_>
          <internalNodes>
            0 -1 39 -2.2308953106403351e-02</internalNodes>
          <leafValues>
            -8.4153944253921509e-01 1.5570828318595886e-01</leafValues></_>
        <_>
          <internalNodes>
            0 -1 11 -5.9671867638826370e-02</internalNodes>
          <leafValues>
            4.5827707648277283e-01 -3.2374325394630432e-01</leafValues></_>
        <_>
          <internalNodes>
            0 -1 88 4.7728857025504112e-03</internalNodes>
          <leafValues>
            -3.5493430495262146e-01 3.0521932244300842e-01</leafValues></_>
        <_>
          <internalNodes>
            0 -1 86 6.9064728450030088e-04</internalNodes>
          <leafValues>
            -3.0207952857017517e-01 4.0788683295249939e-01</leafValues></_>
        <_>
          <internalNodes>
            0 -1 118 -2.5475753471255302e-02</internalNodes>
          <leafValues>
            -9.0234202146530151e-01 1.5786139667034149e-01</leafValues></_>
        <_>
          <internalNodes>
            0 -1 36 3.5318881273269653e-02</internalNodes>
          <leafValues>
            6.3325621187686920e-02 -9.7310882806777954e-01</leafValues></_></weakClassifiers></_>
    <!-- stage 16 -->
    <_>
      <maxWeakCount>10</maxWeakCount>
      <stageThreshold>-2.4198710918426514e+00</stageThreshold>
      <weakClassifiers>
        <_>
          <internalNodes>
            0 -1 57 -2.7913145720958710e-02</internalNodes>
          <leafValues>
            -1.4925372786819935e-02 -9.3656384944915771e-01</leafValues></_>
        <_>
          <internalNodes>
            0 -1 60 -1.8964499235153198e-02</internalNodes>
          <leafValues>
            2.9616990685462952e-01 -7.1540236473083496e-01</leafValues></_>
        <_>
          <internalNodes>
            0 -1 40 1.5432434156537056e-02</internalNodes>
          <leafValues>
            -4.8164910078048706e-01 2.9008203744888306e-01</leafValues></_>
        <_>
          <internalNodes>
            0 -1 41 2.6001362130045891e-03</internalNodes>
          <leafValues>
            -3.9109387993812561e-01 3.0006226897239685e-01</leafValues></_>
        <_>
          <internalNodes>
            0 -1 28 -3.5907537676393986e-03</internalNodes>
          <leafValues>
            -8.4111166000366211e-01 1.2542644143104553e-01</leafValues></_>
        <_>
          <internalNodes>
            0 -1 47 -1.1851472663693130e-04</internalNodes>
          <leafValues>
            2.8836062550544739e-01 -4.5908942818641663e-01</leafValues></_>
        <_>
          <internalNodes>
            0 -1 16 -4.7949235886335373e-03</internalNodes>
          <leafValues>
            6.0581433773040771e-01 -2.1282680332660675e-01</leafValues></_>
        <_>
          <internalNodes>
            0 -1 63 -6.8493925034999847e-02</internalNodes>
          <leafValues>
            -1. 1.4922185242176056e-01</leafValues></_>
        <_>
          <internalNodes>
            0 -1 15 6.8910326808691025e-04</internalNodes>
          <leafValues>
            -4.2710891366004944e-01 2.1816134452819824e-01</leafValues></_>
        <_>
          <internalNodes>
            0 -1 106 1.5820007771253586e-02</internalNodes>
          <leafValues>
            1.8176496028900146e-01 -6.4966666698455811e-01</leafValues></_></weakClassifiers></_>
    <!-- stage 17 -->
    <_>
      <maxWeakCount>13</maxWeakCount>
      <stageThreshold>-2.4647347927093506e+00</stageThreshold>
      <weakClassifiers>
        <_>
          <internalNodes>
            0 -1 85 2.0575834438204765e-02</internalNodes>
          <leafValues>
            -9.2969202995300293e-01 3.3333334326744080e-01</leafValues></_>
        <_>
          <internalNodes>
            0 -1 58 -4.0116645395755768e-02</internalNodes>
          <leafValues>
            3.9877653121948242e-02 -7.7891868352890015e-01</leafValues></_>
        <_>
          <internalNodes>
            0 -1 123 1.1841910891234875e-02</internalNodes>
          <leafValues>
            -3.9908051490783691e-01 4.2297956347465515e-01</leafValues></_>
        <_>
          <internalNodes>
            0 -1 68 -6.8597504869103432e-03</internalNodes>
          <leafValues>
            2.6010507345199585e-01 -4.1338548064231873e-01</leafValues></_>
        <_>
          <internalNodes>
            0 -1 12 5.7037535589188337e-04</internalNodes>
          <leafValues>
            -3.1142276525497437e-01 3.6315944790840149e-01</leafValues></_>
        <_>
          <internalNodes>
            0 -1 34 -4.7134628403000534e-05</internalNodes>
          <leafValues>
            2.2229878604412079e-01 -4.6741044521331787e-01</leafValues></_>
        <_>
          <internalNodes>
            0 -1 110 5.7153165107592940e-04</internalNodes>
          <leafValues>
            -2.0073115825653076e-01 4.8645207285881042e-01</leafValues></_>
        <_>
          <internalNodes>
            0 -1 29 -1.2113163247704506e-03</internalNodes>
          <leafValues>
            -4.8386922478675842e-01 2.4135333299636841e-01</leafValues></_>
        <_>
          <internalNodes>
            0 -1 87 -6.4588915556669235e-03</internalNodes>
          <leafValues>
            6.3907021284103394e-01 -2.1766521036624908e-01</leafValues></_>
        <_>
          <internalNodes>
            0 -1 44 1.3414338231086731e-02</internalNodes>
          <leafValues>
            -3.8985738158226013e-01 3.5410490632057190e-01</leafValues></_>
        <_>
          <internalNodes>
            0 -1 64 -1.6781568527221680e-02</internalNodes>
          <leafValues>
            -9.0451222658157349e-01 1.3282191753387451e-01</leafValues></_>
        <_>
          <internalNodes>
            0 -1 13 2.4323700927197933e-03</internalNodes>
          <leafValues>
            -2.3613359034061432e-01 4.6601638197898865e-01</leafValues></_>
        <_>
          <internalNodes>
            0 -1 25 -2.7870489284396172e-03</internalNodes>
          <leafValues>
            -8.8985031843185425e-01 1.4218750596046448e-01</leafValues></_></weakClassifiers></_></stages>
  <features>
    <_>
      <rects>
        <_>
          0 0 24 24 -1.</_>
        <_>
          8 0 8 24 3.</_></rects>
      <tilted>0</tilted></_>
    <_>
      <rects>
        <_>
          0 1 2 14 -1.</_>
        <_>
          1 1 1 14 2.</_></rects>
      <tilted>0</tilted></_>
    <_>
      <rects>
        <_>
          0 3 16 4 -1.</_>
        <_>
          0 3 8 2 2.</_>
        <_>
          8 5 8 2 2.</_></rects>
      <tilted>0</tilted></_>
    <_>
      <rects>
        <_>
          0 4 4 4 -1.</_>
        <_>
          0 4 2 2 2.</_>
        <_>
          2 6 2 2 2.</_></rects>
      <tilted>0</tilted></_>
    <_>
      <rects>
        <_>
          0 5 24 2 -1.</_>
        <_>
          0 5 12 1 2.</_>
        <_>
          12 6 12 1 2.</_></rects>
      <tilted>0</tilted></_>
    <_>
      <rects>
        <_>
          0 7 11 3 -1.</_>
        <_>
          0 8 11 1 3.</_></rects>
      <tilted>0</tilted></_>
    <_>
      <rects>
        <_>
          0 22 2 2 -1.</_>
        <_>
          1 22 1 2 2.</_></rects>
      <tilted>0</tilted></_>
    <_>
      <rects>
        <_>
          0 22 6 2 -1.</_>
        <_>
          2 22 2 2 3.</_></rects>
      <tilted>0</tilted></_>
    <_>
      <rects>
        <_>
          1 14 2 10 -1.</_>
        <_>
          1 14 1 5 2.</_>
        <_>
          2 19 1 5 2.</_></rects>
      <tilted>0</tilted></_>
    <_>
      <rects>
        <_>
          1 16 6 1 -1.</_>
        <_>
          3 16 2 1 3.</_></rects>
      <tilted>0</tilted></_>
    <_>
      <rects>
        <_>
          2 3 20 14 -1.</_>
        <_>
          2 3 10 7 2.</_>
        <_>
          12 10 10 7 2.</_></rects>
      <tilted>0</tilted></_>
    <_>
      <rects>
        <_>
          3 3 11 15 -1.</_>
        <_>
          3 8 11 5 3.</_></rects>
      <tilted>0</tilted></_>
    <_>
      <rects>
        <_>
          3 4 6 1 -1.</_>
        <_>
          6 4 3 1 2.</_></rects>
      <tilted>0</tilted></_>
    <_>
      <rects>
        <_>
          3 17 4 2 -1.</_>
        <_>
          3 17 2 1 2.</_>
        <_>
          5 18 2 1 2.</_></rects>
      <tilted>0</tilted></_>
    <_>
      <rects>
        <_>
          3 17 10 4 -1.</_>
        <_>
          3 17 5 2 2.</_>
        <_>
          8 19 5 2 2.</_></rects>
      <tilted>0</tilted></_>
    <_>
      <rects>
        <_>
          3 20 14 4 -1.</_>
        <_>
          3 20 7 2 2.</_>
        <_>
          10 22 7 2 2.</_></rects>
      <tilted>0</tilted></_>
    <_>
      <rects>
        <_>
          4 3 10 2 -1.</_>
        <_>
          4 3 5 1 2.</_>
        <_>
          9 4 5 1 2.</_></rects>
      <tilted>0</tilted></_>
    <_>
      <rects>
        <_>
          4 4 8 10 -1.</_>
        <_>
          4 4 4 5 2.</_>
        <_>
          8 9 4 5 2.</_></rects>
      <tilted>0</tilted></_>
    <_>
      <rects>
        <_>
          4 6 14 6 -1.</_>
        <_>
          4 6 7 3 2.</_>
        <_>
          11 9 7 3 2.</_></rects>
      <tilted>0</tilted></_>
    <_>
      <rects>
        <_>
          4 10 4 2 -1.</_>
        <_>
          6 10 2 2 2.</_></rects>
      <tilted>0</tilted></_>
    <_>
      <rects>
        <_>
          4 12 4 10 -1.</_>
        <_>
          4 12 2 5 2.</_>
        <_>
          6 17 2 5 2.</_></rects>
      <tilted>0</tilted></_>
    <_>
      <rects>
        <_>
          4 12 6 2 -1.</_>
        <_>
          4 13 6 1 2.</_></rects>
      <tilted>0</tilted></_>
    <_>
      <rects>
        <_>
          4 17 2 2 -1.</_>
        <_>
          4 17 1 1 2.</_>
        <_>
          5 18 1 1 2.</_></rects>
      <tilted>0</tilted></_>
    <_>
      <rects>
        <_>
          4 17 8 4 -1.</_>
        <_>
          4 17 4 2 2.</_>
        <_>
          8 19 4 2 2.</_></rects>
      <tilted>0</tilted></_>
    <_>
      <rects>
        <_>
          4 18 9 3 -1.</_>
        <_>
          7 18 3 3 3.</_></rects>
      <tilted>0</tilted></_>
    <_>
      <rects>
        <_>
          4 21 7 2 -1.</_>
        <_>
          4 22 7 1 2.</_></rects>
      <tilted>0</tilted></_>
    <_>
      <rects>
        <_>
          5 9 6 1 -1.</_>
        <_>
          8 9 3 1 2.</_></rects>
      <tilted>0</tilted></_>
    <_>
      <rects>
        <_>
          5 10 14 2 -1.</_>
        <_>
          5 10 7 1 2.</_>
        <_>
          12 11 7 1 2.</_></rects>
      <tilted>0</tilted></_>
    <_>
      <rects>
        <_>
          5 11 5 2 -1.</_>
        <_>
          5 12 5 1 2.</_></rects>
      <tilted>0</tilted></_>
    <_>
      <rects>
        <_>
          5 12 7 2 -1.</_>
        <_>
          5 13 7 1 2.</_></rects>
      <tilted>0</tilted></_>
    <_>
      <rects>
        <_>
          5 13 6 2 -1.</_>
        <_>
          7 13 2 2 3.</_></rects>
      <tilted>0</tilted></_>
    <_>
      <rects>
        <_>
          6 1 18 13 -1.</_>
        <_>
          12 1 6 13 3.</_></rects>
      <tilted>0</tilted></_>
    <_>
      <rects>
        <_>
          6 3 6 4 -1.</_>
        <_>
          9 3 3 4 2.</_></rects>
      <tilted>0</tilted></_>
    <_>
      <rects>
        <_>
          6 3 6 8 -1.</_>
        <_>
          6 3 3 4 2.</_>
        <_>
          9 7 3 4 2.</_></rects>
      <tilted>0</tilted></_>
    <_>
      <rects>
        <_>
          6 12 4 2 -1.</_>
        <_>
          6 13 4 1 2.</_></rects>
      <tilted>0</tilted></_>
    <_>
      <rects>
        <_>
          6 16 6 4 -1.</_>
        <_>
          6 16 3 2 2.</_>
        <_>
          9 18 3 2 2.</_></rects>
      <tilted>0</tilted></_>
    <_>
      <rects>
        <_>
          7 0 6 22 -1.</_>
        <_>
          7 0 3 11 2.</_>
        <_>
          10 11 3 11 2.</_></rects>
      <tilted>0</tilted></_>
    <_>
      <rects>
        <_>
          7 1 6 4 -1.</_>
        <_>
          9 1 2 4 3.</_></rects>
      <tilted>0</tilted></_>
    <_>
      <rects>
        <_>
          7 1 8 6 -1.</_>
        <_>
          7 3 8 2 3.</_></rects>
      <tilted>0</tilted></_>
    <_>
      <rects>
        <_>
          7 4 3 12 -1.</_>
        <_>
          7 8 3 4 3.</_></rects>
      <tilted>0</tilted></_>
    <_>
      <rects>
        <_>
          7 4 6 16 -1.</_>
        <_>
          7 4 3 8 2.</_>
        <_>
          10 12 3 8 2.</_></rects>
      <tilted>0</tilted></_>
    <_>
      <rects>
        <_>
          7 4 9 3 -1.</_>
        <_>
          7 5 9 1 3.</_></rects>
      <tilted>0</tilted></_>
    <_>
      <rects>
        <_>
          7 5 2 6 -1.</_>
        <_>
          7 5 1 3 2.</_>
        <_>
          8 8 1 3 2.</_></rects>
      <tilted>0</tilted></_>
    <_>
      <rects>
        <_>
          7 8 1 12 -1.</_>
        <_>
          7 12 1 4 3.</_></rects>
      <tilted>0</tilted></_>
    <_>
      <rects>
        <_>
          7 8 6 8 -1.</_>
        <_>
          7 12 6 4 2.</_></rects>
      <tilted>0</tilted></_>
    <_>
      <rects>
        <_>
          7 9 8 2 -1.</_>
        <_>
          7 10 8 1 2.</_></rects>
      <tilted>0</tilted></_>
    <_>
      <rects>
        <_>
          7 10 4 10 -1.</_>
        <_>
          7 10 2 5 2.</_>
        <_>
          9 15 2 5 2.</_></rects>
      <tilted>0</tilted></_>
    <_>
      <rects>
        <_>
          7 10 4 6 -1.</_>
        <_>
          7 12 4 2 3.</_></rects>
      <tilted>0</tilted></_>
    <_>
      <rects>
        <_>
          7 10 12 6 -1.</_>
        <_>
          7 10 6 3 2.</_>
        <_>
          13 13 6 3 2.</_></rects>
      <tilted>0</tilted></_>
    <_>
      <rects>
        <_>
          7 11 5 3 -1.</_>
        <_>
          7 12 5 1 3.</_></rects>
      <tilted>0</tilted></_>
    <_>
      <rects>
        <_>
          7 17 9 6 -1.</_>
        <_>
          7 19 9 2 3.</_></rects>
      <tilted>0</tilted></_>
    <_>
      <rects>
        <_>
          8 0 6 18 -1.</_>
        <_>
          8 0 3 9 2.</_>
        <_>
          11 9 3 9 2.</_></rects>
      <tilted>0</tilted></_>
    <_>
      <rects>
        <_>
          8 2 2 4 -1.</_>
        <_>
          9 2 1 4 2.</_></rects>
      <tilted>0</tilted></_>
    <_>
      <rects>
        <_>
          8 3 2 13 -1.</_>
        <_>
          9 3 1 13 2.</_></rects>
      <tilted>0</tilted></_>
    <_>
      <rects>
        <_>
          8 4 4 6 -1.</_>
        <_>
          8 6 4 2 3.</_></rects>
      <tilted>0</tilted></_>
    <_>
      <rects>
        <_>
          8 5 2 2 -1.</_>
        <_>
          8 6 2 1 2.</_></rects>
      <tilted>0</tilted></_>
    <_>
      <rects>
        <_>
          8 6 3 2 -1.</_>
        <_>
          8 7 3 1 2.</_></rects>
      <tilted>0</tilted></_>
    <_>
      <rects>
        <_>
          8 6 3 4 -1.</_>
        <_>
          8 8 3 2 2.</_></rects>
      <tilted>0</tilted></_>
    <_>
      <rects>
        <_>
          8 6 8 4 -1.</_>
        <_>
          8 8 8 2 2.</_></rects>
      <tilted>0</tilted></_>
    <_>
      <rects>
        <_>
          8 7 12 6 -1.</_>
        <_>
          8 7 6 3 2.</_>
        <_>
          14 10 6 3 2.</_></rects>
      <tilted>0</tilted></_>
    <_>
      <rects>
        <_>
          8 8 3 3 -1.</_>
        <_>
          8 9 3 1 3.</_></rects>
      <tilted>0</tilted></_>
    <_>
      <rects>
        <_>
          8 8 4 3 -1.</_>
        <_>
          8 9 4 1 3.</_></rects>
      <tilted>0</tilted></_>
    <_>
      <rects>
        <_>
          8 8 6 4 -1.</_>
        <_>
          8 10 6 2 2.</_></rects>
      <tilted>0</tilted></_>
    <_>
      <rects>
        <_>
          8 9 12 9 -1.</_>
        <_>
          8 12 12 3 3.</_></rects>
      <tilted>0</tilted></_>
    <_>
      <rects>
        <_>
          8 10 12 4 -1.</_>
        <_>
          8 10 6 2 2.</_>
        <_>
          14 12 6 2 2.</_></rects>
      <tilted>0</tilted></_>
    <_>
      <rects>
        <_>
          8 14 2 6 -1.</_>
        <_>
          8 14 1 3 2.</_>
        <_>
          9 17 1 3 2.</_></rects>
      <tilted>0</tilted></_>
    <_>
      <rects>
        <_>
          8 16 9 3 -1.</_>
        <_>
          8 17 9 1 3.</_></rects>
      <tilted>0</tilted></_>
    <_>
      <rects>
        <_>
          9 0 6 20 -1.</_>
        <_>
          9 0 3 10 2.</_>
        <_>
          12 10 3 10 2.</_></rects>
      <tilted>0</tilted></_>
    <_>
      <rects>
        <_>
          9 1 6 18 -1.</_>
        <_>
          9 1 3 9 2.</_>
        <_>
          12 10 3 9 2.</_></rects>
      <tilted>0</tilted></_>
    <_>
      <rects>
        <_>
          9 2 5 6 -1.</_>
        <_>
          9 4 5 2 3.</_></rects>
      <tilted>0</tilted></_>
    <_>
      <rects>
        <_>
          9 4 5 12 -1.</_>
        <_>
          9 8 5 4 3.</_></rects>
      <tilted>0</tilted></_>
    <_>
      <rects>
        <_>
          9 6 4 14 -1.</_>
        <_>
          11 6 2 14 2.</_></rects>
      <tilted>0</tilted></_>
    <_>
      <rects>
        <_>
          9 6 7 4 -1.</_>
        <_>
          9 8 7 2 2.</_></rects>
      <tilted>0</tilted></_>
    <_>
      <rects>
        <_>
          9 6 14 4 -1.</_>
        <_>
          9 6 7 2 2.</_>
        <_>
          16 8 7 2 2.</_></rects>
      <tilted>0</tilted></_>
    <_>
      <rects>
        <_>
          9 8 8 8 -1.</_>
        <_>
          9 8 4 4 2.</_>
        <_>
          13 12 4 4 2.</_></rects>
      <tilted>0</tilted></_>
    <_>
      <rects>
        <_>
          9 8 9 10 -1.</_>
        <_>
          9 13 9 5 2.</_></rects>
      <tilted>0</tilted></_>
    <_>
      <rects>
        <_>
          9 9 2 6 -1.</_>
        <_>
          9 9 1 3 2.</_>
        <_>
          10 12 1 3 2.</_></rects>
      <tilted>0</tilted></_>
    <_>
      <rects>
        <_>
          9 10 3 3 -1.</_>
        <_>
          10 10 1 3 3.</_></rects>
      <tilted>0</tilted></_>
    <_>
      <rects>
        <_>
          9 10 2 6 -1.</_>
        <_>
          9 10 1 3 2.</_>
        <_>
          10 13 1 3 2.</_></rects>
      <tilted>0</tilted></_>
    <_>
      <rects>
        <_>
          9 11 2 6 -1.</_>
        <_>
          9 11 1 3 2.</_>
        <_>
          10 14 1 3 2.</_></rects>
      <tilted>0</tilted></_>
    <_>
      <rects>
        <_>
          9 12 2 6 -1.</_>
        <_>
          9 12 1 3 2.</_>
        <_>
          10 15 1 3 2.</_></rects>
      <tilted>0</tilted></_>
    <_>
      <rects>
        <_>
          9 13 1 2 -1.</_>
        <_>
          9 14 1 1 2.</_></rects>
      <tilted>0</tilted></_>
    <_>
      <rects>
        <_>
          10 2 4 9 -1.</_>
        <_>
          10 5 4 3 3.</_></rects>
      <tilted>0</tilted></_>
    <_>
      <rects>
        <_>
          10 4 6 4 -1.</_>
        <_>
          13 4 3 4 2.</_></rects>
      <tilted>0</tilted></_>
    <_>
      <rects>
        <_>
          10 5 2 10 -1.</_>
        <_>
          10 5 1 5 2.</_>
        <_>
          11 10 1 5 2.</_></rects>
      <tilted>0</tilted></_>
    <_>
      <rects>
        <_>
          10 7 2 8 -1.</_>
        <_>
          10 7 1 4 2.</_>
        <_>
          11 11 1 4 2.</_></rects>
      <tilted>0</tilted></_>
    <_>
      <rects>
        <_>
          10 8 6 3 -1.</_>
        <_>
          10 9 6 1 3.</_></rects>
      <tilted>0</tilted></_>
    <_>
      <rects>
        <_>
          10 9 2 8 -1.</_>
        <_>
          10 13 2 4 2.</_></rects>
      <tilted>0</tilted></_>
    <_>
      <rects>
        <_>
          10 9 10 4 -1.</_>
        <_>
          10 11 10 2 2.</_></rects>
      <tilted>0</tilted></_>
    <_>
      <rects>
        <_>
          10 13 4 2 -1.</_>
        <_>
          10 14 4 1 2.</_></rects>
      <tilted>0</tilted></_>
    <_>
      <rects>
        <_>
          10 17 10 6 -1.</_>
        <_>
          10 17 5 3 2.</_>
        <_>
          15 20 5 3 2.</_></rects>
      <tilted>0</tilted></_>
    <_>
      <rects>
        <_>
          10 19 8 2 -1.</_>
        <_>
          10 19 4 1 2.</_>
        <_>
          14 20 4 1 2.</_></rects>
      <tilted>0</tilted></_>
    <_>
      <rects>
        <_>
          11 4 2 16 -1.</_>
        <_>
          11 4 1 8 2.</_>
        <_>
          12 12 1 8 2.</_></rects>
      <tilted>0</tilted></_>
    <_>
      <rects>
        <_>
          11 7 3 12 -1.</_>
        <_>
          12 7 1 12 3.</_></rects>
      <tilted>0</tilted></_>
    <_>
      <rects>
        <_>
          11 8 3 2 -1.</_>
        <_>
          12 8 1 2 3.</_></rects>
      <tilted>0</tilted></_>
    <_>
      <rects>
        <_>
          11 8 2 6 -1.</_>
        <_>
          11 8 1 3 2.</_>
        <_>
          12 11 1 3 2.</_></rects>
      <tilted>0</tilted></_>
    <_>
      <rects>
        <_>
          11 9 3 1 -1.</_>
        <_>
          12 9 1 1 3.</_></rects>
      <tilted>0</tilted></_>
    <_>
      <rects>
        <_>
          11 18 3 6 -1.</_>
        <_>
          11 20 3 2 3.</_></rects>
      <tilted>0</tilted></_>
    <_>
      <rects>
        <_>
          12 0 2 8 -1.</_>
        <_>
          12 0 1 4 2.</_>
        <_>
          13 4 1 4 2.</_></rects>
      <tilted>0</tilted></_>
    <_>
      <rects>
        <_>
          12 1 2 4 -1.</_>
        <_>
          13 1 1 4 2.</_></rects>
      <tilted>0</tilted></_>
    <_>
      <rects>
        <_>
          12 3 5 12 -1.</_>
        <_>
          12 9 5 6 2.</_></rects>
      <tilted>0</tilted></_>
    <_>
      <rects>
        <_>
          12 4 4 4 -1.</_>
        <_>
          14 4 2 4 2.</_></rects>
      <tilted>0</tilted></_>
    <_>
      <rects>
        <_>
          12 6 2 4 -1.</_>
        <_>
          12 6 1 2 2.</_>
        <_>
          13 8 1 2 2.</_></rects>
      <tilted>0</tilted></_>
    <_>
      <rects>
        <_>
          12 7 3 9 -1.</_>
        <_>
          13 7 1 9 3.</_></rects>
      <tilted>0</tilted></_>
    <_>
      <rects>
        <_>
          12 8 3 6 -1.</_>
        <_>
          13 8 1 6 3.</_></rects>
      <tilted>0</tilted></_>
    <_>
      <rects>
        <_>
          12 9 3 6 -1.</_>
        <_>
          13 9 1 6 3.</_></rects>
      <tilted>0</tilted></_>
    <_>
      <rects>
        <_>
          12 14 12 6 -1.</_>
        <_>
          12 14 6 3 2.</_>
        <_>
          18 17 6 3 2.</_></rects>
      <tilted>0</tilted></_>
    <_>
      <rects>
        <_>
          12 19 6 2 -1.</_>
        <_>
          12 19 3 1 2.</_>
        <_>
          15 20 3 1 2.</_></rects>
      <tilted>0</tilted></_>
    <_>
      <rects>
        <_>
          13 0 2 13 -1.</_>
        <_>
          14 0 1 13 2.</_></rects>
      <tilted>0</tilted></_>
    <_>
      <rects>
        <_>
          13 2 3 3 -1.</_>
        <_>
          14 2 1 3 3.</_></rects>
      <tilted>0</tilted></_>
    <_>
      <rects>
        <_>
          13 4 2 2 -1.</_>
        <_>
          13 4 1 1 2.</_>
        <_>
          14 5 1 1 2.</_></rects>
      <tilted>0</tilted></_>
    <_>
      <rects>
        <_>
          13 5 3 9 -1.</_>
        <_>
          14 5 1 9 3.</_></rects>
      <tilted>0</tilted></_>
    <_>
      <rects>
        <_>
          13 5 3 10 -1.</_>
        <_>
          14 5 1 10 3.</_></rects>
      <tilted>0</tilted></_>
    <_>
      <rects>
        <_>
          13 7 2 6 -1.</_>
        <_>
          13 7 1 3 2.</_>
        <_>
          14 10 1 3 2.</_></rects>
      <tilted>0</tilted></_>
    <_>
      <rects>
        <_>
          13 10 3 2 -1.</_>
        <_>
          14 10 1 2 3.</_></rects>
      <tilted>0</tilted></_>
    <_>
      <rects>
        <_>
          13 11 2 6 -1.</_>
        <_>
          13 11 1 3 2.</_>
        <_>
          14 14 1 3 2.</_></rects>
      <tilted>0</tilted></_>
    <_>
      <rects>
        <_>
          13 11 3 4 -1.</_>
        <_>
          13 13 3 2 2.</_></rects>
      <tilted>0</tilted></_>
    <_>
      <rects>
        <_>
          13 17 4 2 -1.</_>
        <_>
          13 18 4 1 2.</_></rects>
      <tilted>0</tilted></_>
    <_>
      <rects>
        <_>
          14 5 5 9 -1.</_>
        <_>
          14 8 5 3 3.</_></rects>
      <tilted>0</tilted></_>
    <_>
      <rects>
        <_>
          14 9 3 1 -1.</_>
        <_>
          15 9 1 1 3.</_></rects>
      <tilted>0</tilted></_>
    <_>
      <rects>
        <_>
          14 9 1 3 -1.</_>
        <_>
          14 10 1 1 3.</_></rects>
      <tilted>0</tilted></_>
    <_>
      <rects>
        <_>
          14 9 3 4 -1.</_>
        <_>
          15 9 1 4 3.</_></rects>
      <tilted>0</tilted></_>
    <_>
      <rects>
        <_>
          14 15 4 2 -1.</_>
        <_>
          14 15 2 1 2.</_>
        <_>
          16 16 2 1 2.</_></rects>
      <tilted>0</tilted></_>
    <_>
      <rects>
        <_>
          14 16 6 4 -1.</_>
        <_>
          14 16 3 2 2.</_>
        <_>
          17 18 3 2 2.</_></rects>
      <tilted>0</tilted></_>
    <_>
      <rects>
        <_>
          14 17 2 3 -1.</_>
        <_>
          15 17 1 3 2.</_></rects>
      <tilted>0</tilted></_>
    <_>
      <rects>
        <_>
          15 3 2 3 -1.</_>
        <_>
          15 4 2 1 3.</_></rects>
      <tilted>0</tilted></_>
    <_>
      <rects>
        <_>
          15 5 2 2 -1.</_>
        <_>
          15 5 1 1 2.</_>
        <_>
          16 6 1 1 2.</_></rects>
      <tilted>0</tilted></_>
    <_>
      <rects>
        <_>
          15 5 1 6 -1.</_>
        <_>
          15 7 1 2 3.</_></rects>
      <tilted>0</tilted></_>
    <_>
      <rects>
        <_>
          15 6 3 17 -1.</_>
        <_>
          16 6 1 17 3.</_></rects>
      <tilted>0</tilted></_>
    <_>
      <rects>
        <_>
          15 7 2 2 -1.</_>
        <_>
          15 8 2 1 2.</_></rects>
      <tilted>0</tilted></_>
    <_>
      <rects>
        <_>
          15 8 2 4 -1.</_>
        <_>
          15 8 1 2 2.</_>
        <_>
          16 10 1 2 2.</_></rects>
      <tilted>0</tilted></_>
    <_>
      <rects>
        <_>
          15 8 3 5 -1.</_>
        <_>
          16 8 1 5 3.</_></rects>
      <tilted>0</tilted></_>
    <_>
      <rects>
        <_>
          15 13 3 2 -1.</_>
        <_>
          16 13 1 2 3.</_></rects>
      <tilted>0</tilted></_>
    <_>
      <rects>
        <_>
          15 14 1 6 -1.</_>
        <_>
          15 16 1 2 3.</_></rects>
      <tilted>0</tilted></_>
    <_>
      <rects>
        <_>
          15 16 2 2 -1.</_>
        <_>
          15 16 1 1 2.</_>
        <_>
          16 17 1 1 2.</_></rects>
      <tilted>0</tilted></_>
    <_>
      <rects>
        <_>
          16 7 2 2 -1.</_>
        <_>
          16 7 1 1 2.</_>
        <_>
          17 8 1 1 2.</_></rects>
      <tilted>0</tilted></_>
    <_>
      <rects>
        <_>
          16 7 4 10 -1.</_>
        <_>
          18 7 2 10 2.</_></rects>
      <tilted>0</tilted></_>
    <_>
      <rects>
        <_>
          16 9 3 1 -1.</_>
        <_>
          17 9 1 1 3.</_></rects>
      <tilted>0</tilted></_>
    <_>
      <rects>
        <_>
          16 11 2 3 -1.</_>
        <_>
          16 12 2 1 3.</_></rects>
      <tilted>0</tilted></_>
    <_>
      <rects>
        <_>
          16 12 2 6 -1.</_>
        <_>
          16 12 1 3 2.</_>
        <_>
          17 15 1 3 2.</_></rects>
      <tilted>0</tilted></_>
    <_>
      <rects>
        <_>
          18 22 6 1 -1.</_>
        <_>
          20 22 2 1 3.</_></rects>
      <tilted>0</tilted></_>
    <_>
      <rects>
        <_>
          19 16 4 6 -1.</_>
        <_>
          19 16 2 3 2.</_>
        <_>
          21 19 2 3 2.</_></rects>
      <tilted>0</tilted></_>
    <_>
      <rects>
        <_>
          20 5 4 10 -1.</_>
        <_>
          20 5 2 5 2.</_>
        <_>
          22 10 2 5 2.</_></rects>
      <tilted>0</tilted></_>
    <_>
      <rects>
        <_>
          22 1 1 4 -1.</_>
        <_>
          22 3 1 2 2.</_></rects>
      <tilted>0</tilted></_>
    <_>
      <rects>
        <_>
          22 2 2 2 -1.</_>
        <_>
          22 3 2 1 2.</_></rects>
      <tilted>0</tilted></_></features></cascade>
</opencv_storage>
